{"learner":{"attributes":{"scikit_learn":"{\"_estimator_type\": \"classifier\"}"},"feature_names":["Age","Cough","EndemicArea","AbdominalPain","Vaccination","Mosquitos","HighRiskGroup","AreaOutbreak","Chills","Fatique"],"feature_types":["float","float","float","float","float","float","float","float","float","float"],"gradient_booster":{"model":{"gbtree_model_param":{"num_parallel_tree":"1","num_trees":"100"},"iteration_indptr":[0,1,2,3,4,5,6,7,8,9,10,11,12,13,14,15,16,17,18,19,20,21,22,23,24,25,26,27,28,29,30,31,32,33,34,35,36,37,38,39,40,41,42,43,44,45,46,47,48,49,50,51,52,53,54,55,56,57,58,59,60,61,62,63,64,65,66,67,68,69,70,71,72,73,74,75,76,77,78,79,80,81,82,83,84,85,86,87,88,89,90,91,92,93,94,95,96,97,98,99,100],"tree_info":[0,0,0,0,0,0,0,0,0,0,0,0,0,0,0,0,0,0,0,0,0,0,0,0,0,0,0,0,0,0,0,0,0,0,0,0,0,0,0,0,0,0,0,0,0,0,0,0,0,0,0,0,0,0,0,0,0,0,0,0,0,0,0,0,0,0,0,0,0,0,0,0,0,0,0,0,0,0,0,0,0,0,0,0,0,0,0,0,0,0,0,0,0,0,0,0,0,0,0,0],"trees":[{"base_weights":[3.003748E-1,-1.3043567E0,9.631722E-1,-3.3195672E0,2.8285235E-1,3.0899066E-1,1.1683855E0,-4.547392E0,-1.3507755E0,-1.3664472E0,9.7296643E-1,-1.2498142E0,9.78251E-1,9.6554E-1,1.2273312E0,-9.8946154E-1,-6.934139E-1,-6.9774437E-1,7.444673E-2,-6.819656E-1,5.5721622E-2,5.6299515E-2,2.3627655E-1,-6.554474E-1,6.8098746E-2,5.9125055E-2,2.3475981E-1,5.0118793E-2,2.3326407E-1,2.3566356E-1,2.4836273E-1],"categories":[],"categories_nodes":[],"categories_segments":[],"categories_sizes":[],"default_left":[0,0,0,0,0,0,0,0,0,0,0,0,0,0,0,0,0,0,0,0,0,0,0,0,0,0,0,0,0,0,0],"id":0,"left_children":[1,3,5,7,9,11,13,15,17,19,21,23,25,27,29,-1,-1,-1,-1,-1,-1,-1,-1,-1,-1,-1,-1,-1,-1,-1,-1],"loss_changes":[2.3339584E4,2.05163E4,2.0846143E3,6.8303203E3,4.0841377E3,3.8690156E3,1.4100684E2,7.4940234E2,3.9997136E3,3.5584675E3,3.643933E2,3.592066E3,3.4617212E2,3.820288E2,6.1132812E0,0E0,0E0,0E0,0E0,0E0,0E0,0E0,0E0,0E0,0E0,0E0,0E0,0E0,0E0,0E0,0E0],"parents":[2147483647,0,0,1,1,2,2,3,3,4,4,5,5,6,6,7,7,8,8,9,9,10,10,11,11,12,12,13,13,14,14],"right_children":[2,4,6,8,10,12,14,16,18,20,22,24,26,28,30,-1,-1,-1,-1,-1,-1,-1,-1,-1,-1,-1,-1,-1,-1,-1,-1],"split_conditions":[1E0,1E0,1E0,1E0,1E0,1E0,1E0,1E0,1E0,1E0,1E0,1E0,1E0,1E0,1E0,-9.8946154E-1,-6.934139E-1,-6.9774437E-1,7.444673E-2,-6.819656E-1,5.5721622E-2,5.6299515E-2,2.3627655E-1,-6.554474E-1,6.8098746E-2,5.9125055E-2,2.3475981E-1,5.0118793E-2,2.3326407E-1,2.3566356E-1,2.4836273E-1],"split_indices":[8,7,5,4,2,4,7,6,1,5,5,6,1,2,2,0,0,0,0,0,0,0,0,0,0,0,0,0,0,0,0],"split_type":[0,0,0,0,0,0,0,0,0,0,0,0,0,0,0,0,0,0,0,0,0,0,0,0,0,0,0,0,0,0,0],"sum_hessian":[2.194352E4,6.4140054E3,1.5529514E4,2.82596E3,3.5880452E3,3.7084402E3,1.1821073E4,1.7403932E3,1.0855669E3,1.0583818E3,2.5296633E3,1.1138606E3,2.5945796E3,2.6624397E3,9.158634E3,1.2698625E3,4.7053064E2,4.844306E2,6.011363E2,4.7202124E2,5.863606E2,5.860438E2,1.9436196E3,4.8961978E2,6.242408E2,5.7792E2,2.0166597E3,5.839197E2,2.07852E3,2.09242E3,7.0662134E3],"tree_param":{"num_deleted":"0","num_feature":"10","num_nodes":"31","size_leaf_vector":"1"}},{"base_weights":[2.9351264E-1,-3.1519957E0,6.953533E-1,-2.9464154E0,-4.054575E0,-1.8680567E-1,1.05578E0,-2.7676172E0,-3.7127085E0,-3.7572737E0,-5.5633373E0,-1.485894E0,6.985871E-1,7.278583E-1,1.1621093E0,-5.235199E-1,-6.740555E-1,-6.7771685E-1,-1.0860716E0,-6.9091237E-1,-1.0906376E0,-1.0847654E0,-1.2208796E0,-3.900571E-1,2.4974895E-1,-4.1508645E-2,2.1259728E-1,-4.279655E-2,2.1575105E-1,2.1537338E-1,2.3751374E-1],"categories":[],"categories_nodes":[],"categories_segments":[],"categories_sizes":[],"default_left":[0,0,0,0,0,0,0,0,0,0,0,0,0,0,0,0,0,0,0,0,0,0,0,0,0,0,0,0,0,0,0],"id":1,"left_children":[1,3,5,7,9,11,13,15,17,19,21,23,25,27,29,-1,-1,-1,-1,-1,-1,-1,-1,-1,-1,-1,-1,-1,-1,-1,-1],"loss_changes":[2.9128295E4,4.0583008E2,5.9906494E3,2.4359766E2,1.7966846E2,6.286091E3,4.661162E2,1.2979395E2,1.8560693E2,1.7208252E2,5.769043E-1,2.8133838E3,1.073244E3,1.0826925E3,2.1566406E1,0E0,0E0,0E0,0E0,0E0,0E0,0E0,0E0,0E0,0E0,0E0,0E0,0E0,0E0,0E0,0E0],"parents":[2147483647,0,0,1,1,2,2,3,3,4,4,5,5,6,6,7,7,8,8,9,9,10,10,11,11,12,12,13,13,14,14],"right_children":[2,4,6,8,10,12,14,16,18,20,22,24,26,28,30,-1,-1,-1,-1,-1,-1,-1,-1,-1,-1,-1,-1,-1,-1,-1,-1],"split_conditions":[3.90625E-1,1E0,1E0,1E0,1E0,1E0,1E0,1E0,1E0,1E0,1E0,7.8125E-1,1E0,1E0,1E0,-5.235199E-1,-6.740555E-1,-6.7771685E-1,-1.0860716E0,-6.9091237E-1,-1.0906376E0,-1.0847654E0,-1.2208796E0,-3.900571E-1,2.4974895E-1,-4.1508645E-2,2.1259728E-1,-4.279655E-2,2.1575105E-1,2.1537338E-1,2.3751374E-1],"split_indices":[0,8,1,7,5,2,2,4,5,4,7,0,4,7,5,0,0,0,0,0,0,0,0,0,0,0,0,0,0,0,0],"split_type":[0,0,0,0,0,0,0,0,0,0,0,0,0,0,0,0,0,0,0,0,0,0,0,0,0,0,0,0,0,0,0],"sum_hessian":[2.1038084E4,2.197249E3,1.8840836E4,1.7900642E3,4.0718488E2,5.4649404E3,1.33758955E4,1.4518885E3,3.381757E2,3.405039E2,6.668097E1,2.2150151E3,3.2499253E3,3.2755996E3,1.0100296E4,1.1630704E3,2.888181E2,2.8479056E2,5.3385128E1,2.8923892E2,5.1264984E1,5.403541E1,1.264556E1,1.8935254E3,3.2148984E2,9.320414E2,2.317884E3,8.890521E2,2.3865474E3,2.3247888E3,7.775507E3],"tree_param":{"num_deleted":"0","num_feature":"10","num_nodes":"31","size_leaf_vector":"1"}},{"base_weights":[2.7866825E-1,-8.0887073E-1,8.887784E-1,-1.7181249E0,2.319741E-1,3.198948E-1,1.0977639E0,-2.112118E0,-8.657388E-1,-8.656718E-1,8.56715E-1,-6.726299E-1,9.0640664E-1,9.294953E-1,1.1523768E0,-4.4810876E-1,-3.7325498E-1,-3.8186586E-1,5.9368867E-2,-3.5605678E-1,4.90947E-2,5.279207E-2,2.1446219E-1,-3.2188952E-1,7.038065E-2,7.241535E-2,2.1968059E-1,7.1503036E-2,2.2416225E-1,2.2434674E-1,2.3336025E-1],"categories":[],"categories_nodes":[],"categories_segments":[],"categories_sizes":[],"default_left":[0,0,0,0,0,0,0,0,0,0,0,0,0,0,0,0,0,0,0,0,0,0,0,0,0,0,0,0,0,0,0],"id":2,"left_children":[1,3,5,7,9,11,13,15,17,19,21,23,25,27,29,-1,-1,-1,-1,-1,-1,-1,-1,-1,-1,-1,-1,-1,-1,-1,-1],"loss_changes":[1.2917027E4,6.6214087E3,1.4825029E3,1.2536094E3,2.2370554E3,1.9506934E3,8.349805E1,7.9796875E1,1.4326958E3,1.2026672E3,2.6552502E2,1.1947639E3,2.199436E2,2.4446826E2,2.6835938E0,0E0,0E0,0E0,0E0,0E0,0E0,0E0,0E0,0E0,0E0,0E0,0E0,0E0,0E0,0E0,0E0],"parents":[2147483647,0,0,1,1,2,2,3,3,4,4,5,5,6,6,7,7,8,8,9,9,10,10,11,11,12,12,13,13,14,14],"right_children":[2,4,6,8,10,12,14,16,18,20,22,24,26,28,30,-1,-1,-1,-1,-1,-1,-1,-1,-1,-1,-1,-1,-1,-1,-1,-1],"split_conditions":[1E0,1E0,1E0,1E0,1E0,1E0,1E0,1E0,1E0,1E0,1E0,1E0,1E0,1E0,1E0,-4.4810876E-1,-3.7325498E-1,-3.8186586E-1,5.9368867E-2,-3.5605678E-1,4.90947E-2,5.279207E-2,2.1446219E-1,-3.2188952E-1,7.038065E-2,7.241535E-2,2.1968059E-1,7.1503036E-2,2.2416225E-1,2.2434674E-1,2.3336025E-1],"split_indices":[3,5,6,7,6,5,5,9,8,1,8,7,1,7,9,0,0,0,0,0,0,0,0,0,0,0,0,0,0,0,0],"split_type":[0,0,0,0,0,0,0,0,0,0,0,0,0,0,0,0,0,0,0,0,0,0,0,0,0,0,0,0,0,0,0],"sum_hessian":[1.946725E4,6.996173E3,1.2471077E4,3.7341504E3,3.2620227E3,3.350728E3,9.12035E3,2.553566E3,1.1805844E3,1.1831227E3,2.0789E3,1.244514E3,2.1062139E3,2.235656E3,6.8846934E3,1.6765416E3,8.7702423E2,6.221418E2,5.5844257E2,6.489693E2,5.341534E2,5.546483E2,1.5242516E3,6.501067E2,5.944073E2,5.4940424E2,1.5568097E3,5.6055774E2,1.6750983E3,2.2082795E3,4.676414E3],"tree_param":{"num_deleted":"0","num_feature":"10","num_nodes":"31","size_leaf_vector":"1"}},{"base_weights":[2.5725293E-1,-1.8789107E0,6.013947E-1,-1.8060578E0,-2.1506844E0,-1.9182183E-1,9.777189E-1,-1.7342992E0,-2.0686018E0,-2.0187356E0,-2.6730008E0,-1.184985E0,6.251911E-1,6.451256E-1,1.0939885E0,-3.3593458E-1,-3.8430774E-1,-3.9147356E-1,-5.063034E-1,-3.8401684E-1,-4.7867846E-1,-5.075466E-1,-6.3419586E-1,-2.977986E-1,2.4292849E-1,-3.4948077E-2,2.0204051E-1,-2.6876042E-2,1.9935997E-1,1.9584426E-1,2.257924E-1],"categories":[],"categories_nodes":[],"categories_segments":[],"categories_sizes":[],"default_left":[0,0,0,0,0,0,0,0,0,0,0,0,0,0,0,0,0,0,0,0,0,0,0,0,0,0,0,0,0,0,0],"id":3,"left_children":[1,3,5,7,9,11,13,15,17,19,21,23,25,27,29,-1,-1,-1,-1,-1,-1,-1,-1,-1,-1,-1,-1,-1,-1,-1,-1],"loss_changes":[1.3073796E4,4.807129E1,4.5722085E3,3.5938477E1,3.4884766E1,3.9992E3,4.014746E2,1.4964844E1,2.0531128E1,1.4497192E1,5.668396E0,1.6230037E3,8.3289465E2,7.378871E2,3.0573242E1,0E0,0E0,0E0,0E0,0E0,0E0,0E0,0E0,0E0,0E0,0E0,0E0,0E0,0E0,0E0,0E0],"parents":[2147483647,0,0,1,1,2,2,3,3,4,4,5,5,6,6,7,7,8,8,9,9,10,10,11,11,12,12,13,13,14,14],"right_children":[2,4,6,8,10,12,14,16,18,20,22,24,26,28,30,-1,-1,-1,-1,-1,-1,-1,-1,-1,-1,-1,-1,-1,-1,-1,-1],"split_conditions":[3.90625E-1,1E0,1E0,1E0,1E0,1E0,1E0,1E0,1E0,1E0,1E0,7.8125E-1,1E0,1E0,1E0,-3.3593458E-1,-3.8430774E-1,-3.9147356E-1,-5.063034E-1,-3.8401684E-1,-4.7867846E-1,-5.075466E-1,-6.3419586E-1,-2.977986E-1,2.4292849E-1,-3.4948077E-2,2.0204051E-1,-2.6876042E-2,1.9935997E-1,1.9584426E-1,2.257924E-1],"split_indices":[0,6,3,7,8,4,6,4,2,3,7,0,6,2,4,0,0,0,0,0,0,0,0,0,0,0,0,0,0,0,0],"split_type":[0,0,0,0,0,0,0,0,0,0,0,0,0,0,0,0,0,0,0,0,0,0,0,0,0,0,0,0,0,0,0],"sum_hessian":[1.7783932E4,2.4674143E3,1.5316518E4,1.9467048E3,5.207095E2,4.9283403E3,1.0388178E4,1.529738E3,4.1696686E2,4.162368E2,1.04472664E2,2.2244138E3,2.7039263E3,2.6912576E3,7.6969204E3,1.1854258E3,3.443122E2,3.3678055E2,8.018632E1,3.3017682E2,8.605995E1,8.279353E1,2.1679136E1,1.9743623E3,2.5005157E2,8.7849255E2,1.8254338E3,8.3661975E2,1.8546377E3,1.7990382E3,5.8978823E3],"tree_param":{"num_deleted":"0","num_feature":"10","num_nodes":"31","size_leaf_vector":"1"}},{"base_weights":[2.441786E-1,-1.6096126E0,5.551692E-1,-1.5664452E0,-1.7595446E0,-1.9168913E-1,9.2297065E-1,-1.5323263E0,-1.6805208E0,-1.6905845E0,-1.9984384E0,-1.078308E0,5.826959E-1,5.610774E-1,1.0586408E0,-2.997944E-1,-3.2885057E-1,-3.2295138E-1,-3.8748094E-1,-3.242841E-1,-3.8642386E-1,-3.8556907E-1,-4.562238E-1,-2.6994145E-1,2.4280451E-1,-4.5516822E-2,1.9475314E-1,-4.1127305E-2,1.8873373E-1,1.9051345E-1,2.1903777E-1],"categories":[],"categories_nodes":[],"categories_segments":[],"categories_sizes":[],"default_left":[0,0,0,0,0,0,0,0,0,0,0,0,0,0,0,0,0,0,0,0,0,0,0,0,0,0,0,0,0,0,0],"id":4,"left_children":[1,3,5,7,9,11,13,15,17,19,21,23,25,27,29,-1,-1,-1,-1,-1,-1,-1,-1,-1,-1,-1,-1,-1,-1,-1,-1],"loss_changes":[9.199027E3,1.4227539E1,3.7535938E3,6.354492E0,7.713257E0,3.0957454E3,4.493003E2,4.5651855E0,6.231201E0,5.9732666E0,1.4065552E0,1.3079954E3,7.627236E2,7.325169E2,2.5506348E1,0E0,0E0,0E0,0E0,0E0,0E0,0E0,0E0,0E0,0E0,0E0,0E0,0E0,0E0,0E0,0E0],"parents":[2147483647,0,0,1,1,2,2,3,3,4,4,5,5,6,6,7,7,8,8,9,9,10,10,11,11,12,12,13,13,14,14],"right_children":[2,4,6,8,10,12,14,16,18,20,22,24,26,28,30,-1,-1,-1,-1,-1,-1,-1,-1,-1,-1,-1,-1,-1,-1,-1,-1],"split_conditions":[3.90625E-1,1E0,1E0,1E0,1E0,1E0,1E0,1E0,1E0,1E0,1E0,7.8125E-1,1E0,1E0,1E0,-2.997944E-1,-3.2885057E-1,-3.2295138E-1,-3.8748094E-1,-3.242841E-1,-3.8642386E-1,-3.8556907E-1,-4.562238E-1,-2.6994145E-1,2.4280451E-1,-4.5516822E-2,1.9475314E-1,-4.1127305E-2,1.8873373E-1,1.9051345E-1,2.1903777E-1],"split_indices":[0,6,8,5,8,6,1,4,1,5,3,0,1,3,3,0,0,0,0,0,0,0,0,0,0,0,0,0,0,0,0],"split_type":[0,0,0,0,0,0,0,0,0,0,0,0,0,0,0,0,0,0,0,0,0,0,0,0,0,0,0,0,0,0,0],"sum_hessian":[1.5956288E4,2.29216E3,1.3664129E4,1.7811547E3,5.1100525E2,4.5086436E3,9.155485E3,1.3728643E3,4.0829053E2,3.974902E2,1.1351505E2,2.1020393E3,2.4066042E3,2.4967593E3,6.6587256E3,1.0594727E3,3.1339157E2,3.2596036E2,8.2330154E1,3.099272E2,8.756302E1,9.174062E1,2.1774431E1,1.8795911E3,2.2244835E2,7.833409E2,1.6232632E3,8.310723E2,1.6656869E3,1.7077488E3,4.950977E3],"tree_param":{"num_deleted":"0","num_feature":"10","num_nodes":"31","size_leaf_vector":"1"}},{"base_weights":[2.2078791E-1,-1.4459547E0,5.063853E-1,-1.4153948E0,-1.547223E0,-2.1064702E-1,8.962173E-1,-1.3883507E0,-1.505747E0,-1.4983902E0,-1.7162672E0,-9.953324E-1,5.133451E-1,5.0701123E-1,1.0406337E0,-2.7399436E-1,-2.9079443E-1,-2.935492E-1,-3.2958025E-1,-2.9261023E-1,-3.2260668E-1,-3.3019528E-1,-3.8683498E-1,-2.4777496E-1,2.336831E-1,-6.192375E-2,1.853821E-1,-7.201062E-2,1.8336235E-1,1.8372087E-1,2.1619864E-1],"categories":[],"categories_nodes":[],"categories_segments":[],"categories_sizes":[],"default_left":[0,0,0,0,0,0,0,0,0,0,0,0,0,0,0,0,0,0,0,0,0,0,0,0,0,0,0,0,0,0,0],"id":5,"left_children":[1,3,5,7,9,11,13,15,17,19,21,23,25,27,29,-1,-1,-1,-1,-1,-1,-1,-1,-1,-1,-1,-1,-1,-1,-1,-1],"loss_changes":[6.78446E3,5.9370117E0,3.4012507E3,3.4194336E0,3.395996E0,2.4346724E3,4.4284766E2,1.0095215E0,1.4310913E0,9.749756E-1,8.411865E-1,1.0839117E3,7.586984E2,7.582223E2,2.8014648E1,0E0,0E0,0E0,0E0,0E0,0E0,0E0,0E0,0E0,0E0,0E0,0E0,0E0,0E0,0E0,0E0],"parents":[2147483647,0,0,1,1,2,2,3,3,4,4,5,5,6,6,7,7,8,8,9,9,10,10,11,11,12,12,13,13,14,14],"right_children":[2,4,6,8,10,12,14,16,18,20,22,24,26,28,30,-1,-1,-1,-1,-1,-1,-1,-1,-1,-1,-1,-1,-1,-1,-1,-1],"split_conditions":[3.90625E-1,1E0,1E0,1E0,1E0,1E0,1E0,1E0,1E0,1E0,1E0,7.8125E-1,1E0,1E0,1E0,-2.7399436E-1,-2.9079443E-1,-2.935492E-1,-3.2958025E-1,-2.9261023E-1,-3.2260668E-1,-3.3019528E-1,-3.8683498E-1,-2.4777496E-1,2.336831E-1,-6.192375E-2,1.853821E-1,-7.201062E-2,1.8336235E-1,1.8372087E-1,2.1619864E-1],"split_indices":[0,7,5,5,2,1,4,1,1,3,3,0,2,2,7,0,0,0,0,0,0,0,0,0,0,0,0,0,0,0,0],"split_type":[0,0,0,0,0,0,0,0,0,0,0,0,0,0,0,0,0,0,0,0,0,0,0,0,0,0,0,0,0,0,0],"sum_hessian":[1.4252489E4,2.0848103E3,1.2167679E4,1.6034275E3,4.8138272E2,4.28532E3,7.882359E3,1.2361637E3,3.672638E2,3.747147E2,1.0666802E2,2.0565103E3,2.2288098E3,2.1335442E3,5.748815E3,9.685956E2,2.6756818E2,2.9124384E2,7.601995E1,2.8814233E2,8.657236E1,8.308898E1,2.357904E1,1.8485359E3,2.0797444E2,7.453676E2,1.4834421E3,6.846711E2,1.448873E3,1.4299934E3,4.318822E3],"tree_param":{"num_deleted":"0","num_feature":"10","num_nodes":"31","size_leaf_vector":"1"}},{"base_weights":[2.097861E-1,-1.3371116E0,4.6961695E-1,-1.3178306E0,-1.3989139E0,-2.1038231E-1,8.578367E-1,-1.2984287E0,-2.756908E-1,-2.7456293E-1,-2.959549E-1,-9.2687356E-1,4.629759E-1,4.7836304E-1,1.0132991E0,-2.5615376E-1,-2.7188185E-1,-2.2852142E-1,2.32482E-1,-5.000921E-2,1.7572197E-1,-6.264667E-2,1.779164E-1,1.8200266E-1,2.1213837E-1],"categories":[],"categories_nodes":[],"categories_segments":[],"categories_sizes":[],"default_left":[0,0,0,0,0,0,0,0,0,0,0,0,0,0,0,0,0,0,0,0,0,0,0,0,0],"id":6,"left_children":[1,3,5,7,9,11,13,15,-1,-1,-1,17,19,21,23,-1,-1,-1,-1,-1,-1,-1,-1,-1,-1],"loss_changes":[5.1315376E3,1.7316895E0,2.8858223E3,1.2028809E0,4.2700195E-1,1.9167446E3,4.103213E2,7.092285E-1,0E0,0E0,0E0,8.676998E2,6.0702075E2,6.585121E2,2.3868652E1,0E0,0E0,0E0,0E0,0E0,0E0,0E0,0E0,0E0,0E0],"parents":[2147483647,0,0,1,1,2,2,3,3,4,4,5,5,6,6,7,7,11,11,12,12,13,13,14,14],"right_children":[2,4,6,8,10,12,14,16,-1,-1,-1,18,20,22,24,-1,-1,-1,-1,-1,-1,-1,-1,-1,-1],"split_conditions":[3.90625E-1,1E0,1E0,1E0,1E0,1E0,1E0,1E0,-2.756908E-1,-2.7456293E-1,-2.959549E-1,7.8125E-1,1E0,1E0,1E0,-2.5615376E-1,-2.7188185E-1,-2.2852142E-1,2.32482E-1,-5.000921E-2,1.7572197E-1,-6.264667E-2,1.779164E-1,1.8200266E-1,2.1213837E-1],"split_indices":[0,8,4,3,5,8,3,1,0,0,0,0,2,2,9,0,0,0,0,0,0,0,0,0,0],"split_type":[0,0,0,0,0,0,0,0,0,0,0,0,0,0,0,0,0,0,0,0,0,0,0,0,0],"sum_hessian":[1.2767146E4,1.8359653E3,1.0931182E4,1.4023192E3,4.3364606E2,3.9726106E3,6.958571E3,1.0652793E3,3.3703995E2,3.3012592E2,1.0352014E2,1.9247153E3,2.0478953E3,2.0225955E3,4.935975E3,8.290333E2,2.3624591E2,1.7446599E3,1.8005548E2,7.5407513E2,1.2938201E3,6.914106E2,1.3311849E3,1.5538074E3,3.382168E3],"tree_param":{"num_deleted":"0","num_feature":"10","num_nodes":"25","size_leaf_vector":"1"}},{"base_weights":[1.9621015E-1,-5.2363026E-1,7.2190994E-1,-7.7978134E-1,1.1052552E0,-1.3128811E0,8.4551764E-1,-1.185438E0,-9.91683E-2,1.1497443E0,2.1770087E-1,-1.2884438E0,-2.780781E-1,4.50849E-1,1.0142331E0,-2.7168807E-1,-1.5780796E-1,-1.6159695E-1,1.1398305E-1,2.4308077E-1,2.2342251E-1,-2.528107E-1,-2.7274412E-1,-4.4740953E-2,1.746432E-1,1.8042684E-1,2.1108972E-1],"categories":[],"categories_nodes":[],"categories_segments":[],"categories_sizes":[],"default_left":[0,0,0,0,0,0,0,0,0,0,0,0,0,0,0,0,0,0,0,0,0,0,0,0,0,0,0],"id":7,"left_children":[1,3,5,7,9,11,13,15,17,19,-1,21,-1,23,25,-1,-1,-1,-1,-1,-1,-1,-1,-1,-1,-1,-1],"loss_changes":[4.3068765E3,2.0042827E3,1.6544421E3,1.1459055E3,1.3739014E-1,2.6654053E-1,4.1271484E2,1.7802808E2,7.353191E2,6.1798096E-3,0E0,9.4940186E-2,0E0,5.2926666E2,1.9777832E1,0E0,0E0,0E0,0E0,0E0,0E0,0E0,0E0,0E0,0E0,0E0,0E0],"parents":[2147483647,0,0,1,1,2,2,3,3,4,4,5,5,6,6,7,7,8,8,9,9,11,11,13,13,14,14],"right_children":[2,4,6,8,10,12,14,16,18,20,-1,22,-1,24,26,-1,-1,-1,-1,-1,-1,-1,-1,-1,-1,-1,-1],"split_conditions":[1E0,7.8125E-1,3.90625E-1,1E0,1E0,1E0,1E0,1E0,1E0,1E0,2.1770087E-1,1E0,-2.780781E-1,1E0,1E0,-2.7168807E-1,-1.5780796E-1,-1.6159695E-1,1.1398305E-1,2.4308077E-1,2.2342251E-1,-2.528107E-1,-2.7274412E-1,-4.4740953E-2,1.746432E-1,1.8042684E-1,2.1108972E-1],"split_indices":[7,0,0,3,8,2,6,6,5,4,0,8,0,4,3,0,0,0,0,0,0,0,0,0,0,0,0],"split_type":[0,0,0,0,0,0,0,0,0,0,0,0,0,0,0,0,0,0,0,0,0,0,0,0,0,0,0],"sum_hessian":[1.1380957E4,4.803431E3,6.577526E3,4.1508076E3,6.5262354E2,3.76582E2,6.200944E3,2.600591E3,1.5502168E3,1.7502826E2,4.7759525E2,2.886336E2,8.794838E1,1.8572709E3,4.343673E3,1.8101029E3,7.9048816E2,7.5281995E2,7.973968E2,5.5887035E1,1.1914123E2,2.2034645E2,6.828716E1,7.150652E2,1.1422057E3,1.1689768E3,3.1746963E3],"tree_param":{"num_deleted":"0","num_feature":"10","num_nodes":"27","size_leaf_vector":"1"}},{"base_weights":[1.8099022E-1,-4.5932367E-1,6.751517E-1,-9.620197E-1,2.166789E-1,1.6192493E-1,9.241409E-1,-1.2053213E0,-4.7761145E-1,-4.8704726E-1,7.33462E-1,-5.21916E-1,7.2154677E-1,6.8623394E-1,1.020887E0,-2.647691E-1,-1.973277E-1,-2.0556998E-1,4.1792292E-2,-2.0164979E-1,3.1507082E-2,5.5248763E-2,1.9281958E-1,-2.200742E-1,4.320262E-2,4.679125E-2,1.9405326E-1,3.5923045E-2,1.8939203E-1,1.922621E-1,2.0892464E-1],"categories":[],"categories_nodes":[],"categories_segments":[],"categories_sizes":[],"default_left":[0,0,0,0,0,0,0,0,0,0,0,0,0,0,0,0,0,0,0,0,0,0,0,0,0,0,0,0,0,0,0],"id":8,"left_children":[1,3,5,7,9,11,13,15,17,19,21,23,25,27,29,-1,-1,-1,-1,-1,-1,-1,-1,-1,-1,-1,-1,-1,-1,-1,-1],"loss_changes":[3.2076494E3,1.5006185E3,7.3104126E2,2.9824976E2,6.8492206E2,7.1543713E2,8.843042E1,4.3327637E1,3.2009024E2,2.6797498E2,1.14361755E2,3.5921698E2,1.24545166E2,1.4706085E2,3.571045E0,0E0,0E0,0E0,0E0,0E0,0E0,0E0,0E0,0E0,0E0,0E0,0E0,0E0,0E0,0E0,0E0],"parents":[2147483647,0,0,1,1,2,2,3,3,4,4,5,5,6,6,7,7,8,8,9,9,10,10,11,11,12,12,13,13,14,14],"right_children":[2,4,6,8,10,12,14,16,18,20,22,24,26,28,30,-1,-1,-1,-1,-1,-1,-1,-1,-1,-1,-1,-1,-1,-1,-1,-1],"split_conditions":[1E0,1E0,1E0,1E0,1E0,1E0,1E0,1E0,1E0,1E0,1E0,1E0,1E0,1E0,1E0,-2.647691E-1,-1.973277E-1,-2.0556998E-1,4.1792292E-2,-2.0164979E-1,3.1507082E-2,5.5248763E-2,1.9281958E-1,-2.200742E-1,4.320262E-2,4.679125E-2,1.9405326E-1,3.5923045E-2,1.8939203E-1,1.922621E-1,2.0892464E-1],"split_indices":[7,2,8,3,6,6,5,9,8,4,4,3,4,3,2,0,0,0,0,0,0,0,0,0,0,0,0,0,0,0,0],"split_type":[0,0,0,0,0,0,0,0,0,0,0,0,0,0,0,0,0,0,0,0,0,0,0,0,0,0,0,0,0,0,0],"sum_hessian":[1.0137099E4,4.415492E3,5.721607E3,2.5324165E3,1.8830758E3,1.8692332E3,3.8523735E3,1.6854948E3,8.4692163E2,7.972448E2,1.0858309E3,8.4117316E2,1.02806E3,1.1142306E3,2.738143E3,1.0924395E3,5.9305536E2,4.701924E2,3.7672922E2,4.4086526E2,3.5637955E2,3.6429572E2,7.215353E2,4.7158722E2,3.6958594E2,3.4747165E2,6.805884E2,3.787777E2,7.354529E2,7.8248846E2,1.9556545E3],"tree_param":{"num_deleted":"0","num_feature":"10","num_nodes":"31","size_leaf_vector":"1"}},{"base_weights":[1.7066123E-1,-4.497025E-1,6.6975194E-1,-9.2439604E-1,1.4999026E-1,2.1761192E-1,9.217116E-1,-1.1980882E0,-5.0310576E-1,-5.104892E-1,7.107576E-1,-4.5061177E-1,7.3113006E-1,7.048931E-1,1.0150777E0,-2.5731122E-1,-1.9629052E-1,-1.845425E-1,1.4248935E-2,-1.9943555E-1,3.3431627E-2,4.933138E-2,1.9074671E-1,-2.0837139E-1,5.475793E-2,6.576123E-2,1.912031E-1,6.1903216E-2,1.8573534E-1,1.914749E-1,2.0868926E-1],"categories":[],"categories_nodes":[],"categories_segments":[],"categories_sizes":[],"default_left":[0,0,0,0,0,0,0,0,0,0,0,0,0,0,0,0,0,0,0,0,0,0,0,0,0,0,0,0,0,0,0],"id":9,"left_children":[1,3,5,7,9,11,13,15,17,19,21,23,25,27,29,-1,-1,-1,-1,-1,-1,-1,-1,-1,-1,-1,-1,-1,-1,-1,-1],"loss_changes":[2.8200027E3,1.1560112E3,5.748701E2,2.6111694E2,6.645315E2,6.199401E2,6.536597E1,2.5975708E1,2.152887E2,2.7178006E2,1.0928323E2,3.3630463E2,9.227112E1,8.6220825E1,3.4074707E0,0E0,0E0,0E0,0E0,0E0,0E0,0E0,0E0,0E0,0E0,0E0,0E0,0E0,0E0,0E0,0E0],"parents":[2147483647,0,0,1,1,2,2,3,3,4,4,5,5,6,6,7,7,8,8,9,9,10,10,11,11,12,12,13,13,14,14],"right_children":[2,4,6,8,10,12,14,16,18,20,22,24,26,28,30,-1,-1,-1,-1,-1,-1,-1,-1,-1,-1,-1,-1,-1,-1,-1,-1],"split_conditions":[1E0,1E0,1E0,1E0,1E0,1E0,1E0,1E0,1E0,1E0,1E0,1E0,1E0,1E0,1E0,-2.5731122E-1,-1.9629052E-1,-1.845425E-1,1.4248935E-2,-1.9943555E-1,3.3431627E-2,4.933138E-2,1.9074671E-1,-2.0837139E-1,5.475793E-2,6.576123E-2,1.912031E-1,6.1903216E-2,1.8573534E-1,1.914749E-1,2.0868926E-1],"split_indices":[1,6,2,9,4,6,5,5,7,7,3,3,4,4,9,0,0,0,0,0,0,0,0,0,0,0,0,0,0,0,0],"split_type":[0,0,0,0,0,0,0,0,0,0,0,0,0,0,0,0,0,0,0,0,0,0,0,0,0,0,0,0,0,0,0],"sum_hessian":[9.107745E3,4.0604563E3,5.047289E3,2.2664976E3,1.793959E3,1.8063643E3,3.2409248E3,1.3736687E3,8.928287E2,8.236653E2,9.7029364E2,7.8486444E2,1.0214998E3,9.761034E2,2.2648213E3,9.746809E2,3.9898788E2,5.159797E2,3.7684903E2,4.7943442E2,3.4423087E2,3.3363702E2,6.366566E2,4.322021E2,3.5266232E2,3.6650568E2,6.5499414E2,3.5304135E2,6.230621E2,7.4877374E2,1.5160477E3],"tree_param":{"num_deleted":"0","num_feature":"10","num_nodes":"31","size_leaf_vector":"1"}},{"base_weights":[1.5668271E-1,-1.1781249E0,3.6385748E-1,-1.1528816E0,-1.2434393E0,-1.9176449E-1,7.572119E-1,-2.2583845E-1,-1.2131773E0,-1.2181578E0,-2.6308265E-1,-4.3677184E-1,1.091217E0,3.9132273E-1,9.420551E-1,-2.3619078E-1,-2.618203E-1,-2.380193E-1,-2.5796068E-1,-1.8384558E-1,2.6532454E-2,2.2833195E-1,2.1360503E-1,-3.690503E-2,1.5513073E-1,1.5178353E-1,2.0262317E-1],"categories":[],"categories_nodes":[],"categories_segments":[],"categories_sizes":[],"default_left":[0,0,0,0,0,0,0,0,0,0,0,0,0,0,0,0,0,0,0,0,0,0,0,0,0,0,0],"id":10,"left_children":[1,3,5,7,9,11,13,-1,15,17,-1,19,21,23,25,-1,-1,-1,-1,-1,-1,-1,-1,-1,-1,-1,-1],"loss_changes":[2.2580056E3,1.4259033E0,1.5449282E3,7.6257324E-1,1.3845825E-1,9.2096014E2,2.7973755E2,0E0,2.805786E-1,5.4748535E-2,0E0,6.7597974E2,2.0666504E-1,3.0757562E2,3.552588E1,0E0,0E0,0E0,0E0,0E0,0E0,0E0,0E0,0E0,0E0,0E0,0E0],"parents":[2147483647,0,0,1,1,2,2,3,3,4,4,5,5,6,6,8,8,9,9,11,11,12,12,13,13,14,14],"right_children":[2,4,6,8,10,12,14,-1,16,18,-1,20,22,24,26,-1,-1,-1,-1,-1,-1,-1,-1,-1,-1,-1,-1],"split_conditions":[3.90625E-1,1E0,1E0,1E0,1E0,7.8125E-1,1E0,-2.2583845E-1,1E0,1E0,-2.6308265E-1,1E0,1E0,1E0,1E0,-2.3619078E-1,-2.618203E-1,-2.380193E-1,-2.5796068E-1,-1.8384558E-1,2.6532454E-2,2.2833195E-1,2.1360503E-1,-3.690503E-2,1.5513073E-1,1.5178353E-1,2.0262317E-1],"split_indices":[0,6,5,3,3,0,7,0,5,7,0,8,6,6,8,0,0,0,0,0,0,0,0,0,0,0,0],"split_type":[0,0,0,0,0,0,0,0,0,0,0,0,0,0,0,0,0,0,0,0,0,0,0,0,0,0,0],"sum_hessian":[8.1652905E3,1.0969288E3,7.0683613E3,7.9360614E2,3.0332275E2,2.9297793E3,4.138582E3,5.7236316E2,2.2124298E2,2.2682895E2,7.649382E1,2.4601208E3,4.696584E2,1.3893252E3,2.7492568E3,1.673869E2,5.3856068E1,1.6525916E2,6.1569786E1,1.3318328E3,1.1282882E3,1.4504616E2,3.2461224E2,5.5602203E2,8.3330316E2,7.6927075E2,1.9799861E3],"tree_param":{"num_deleted":"0","num_feature":"10","num_nodes":"27","size_leaf_vector":"1"}},{"base_weights":[1.3652726E-1,-4.1195357E-1,6.0128635E-1,-8.582485E-1,1.13747895E-1,1.5580127E-1,8.759387E-1,-1.1160294E0,-4.8395634E-1,-4.9419656E-1,6.651921E-1,-3.935337E-1,6.2239045E-1,6.589194E-1,9.7741866E-1,-2.4276567E-1,-1.8017155E-1,-1.7318271E-1,9.966388E-3,-1.972683E-1,2.337228E-2,5.1081408E-2,1.8255298E-1,-1.8142432E-1,4.4015754E-2,2.9769886E-2,1.8103357E-1,4.9541976E-2,1.7951807E-1,1.7845462E-1,2.0373252E-1],"categories":[],"categories_nodes":[],"categories_segments":[],"categories_sizes":[],"default_left":[0,0,0,0,0,0,0,0,0,0,0,0,0,0,0,0,0,0,0,0,0,0,0,0,0,0,0,0,0,0,0],"id":11,"left_children":[1,3,5,7,9,11,13,15,17,19,21,23,25,27,29,-1,-1,-1,-1,-1,-1,-1,-1,-1,-1,-1,-1,-1,-1,-1,-1],"loss_changes":[1.8815381E3,7.943854E2,4.8875403E2,1.7646606E2,5.211761E2,3.9070102E2,5.4203003E1,2.2492676E1,1.5241667E2,2.2243373E2,8.256641E1,2.2067532E2,1.1025604E2,7.721036E1,5.630127E0,0E0,0E0,0E0,0E0,0E0,0E0,0E0,0E0,0E0,0E0,0E0,0E0,0E0,0E0,0E0,0E0],"parents":[2147483647,0,0,1,1,2,2,3,3,4,4,5,5,6,6,7,7,8,8,9,9,10,10,11,11,12,12,13,13,14,14],"right_children":[2,4,6,8,10,12,14,16,18,20,22,24,26,28,30,-1,-1,-1,-1,-1,-1,-1,-1,-1,-1,-1,-1,-1,-1,-1,-1],"split_conditions":[1E0,1E0,1E0,1E0,1E0,1E0,1E0,1E0,1E0,1E0,1E0,1E0,1E0,1E0,1E0,-2.4276567E-1,-1.8017155E-1,-1.7318271E-1,9.966388E-3,-1.972683E-1,2.337228E-2,5.1081408E-2,1.8255298E-1,-1.8142432E-1,4.4015754E-2,2.9769886E-2,1.8103357E-1,4.9541976E-2,1.7951807E-1,1.7845462E-1,2.0373252E-1],"split_indices":[3,8,2,9,4,7,6,2,2,7,5,5,6,9,9,0,0,0,0,0,0,0,0,0,0,0,0,0,0,0,0],"split_type":[0,0,0,0,0,0,0,0,0,0,0,0,0,0,0,0,0,0,0,0,0,0,0,0,0,0,0,0,0,0,0],"sum_hessian":[7.3808716E3,3.3854102E3,3.9954617E3,1.831058E3,1.554352E3,1.5240227E3,2.471439E3,1.0840148E3,7.470433E2,7.3922076E2,8.1513135E2,6.998552E2,8.2416754E2,7.880006E2,1.6834384E3,7.446368E2,3.39378E2,4.3552463E2,3.1151865E2,4.095069E2,3.2971387E2,3.072217E2,5.079096E2,3.8104187E2,3.1881335E2,3.0833456E2,5.1583295E2,2.8962476E2,4.9837582E2,5.508761E2,1.1325621E3],"tree_param":{"num_deleted":"0","num_feature":"10","num_nodes":"31","size_leaf_vector":"1"}},{"base_weights":[1.3016422E-1,-4.0744683E-1,5.908102E-1,-6.059363E-1,1.0741179E0,-1.1693252E0,6.975343E-1,-9.3565416E-1,-9.590999E-2,2.2444025E-1,2.1032718E-1,-2.278656E-1,-2.477024E-1,3.3816117E-1,9.055139E-1,-2.2569612E-1,-1.120459E-1,-1.20740764E-1,8.797087E-2,-3.9422516E-2,1.4579388E-1,1.4680846E-1,1.984491E-1],"categories":[],"categories_nodes":[],"categories_segments":[],"categories_sizes":[],"default_left":[0,0,0,0,0,0,0,0,0,0,0,0,0,0,0,0,0,0,0,0,0,0,0],"id":12,"left_children":[1,3,5,7,9,11,13,15,17,-1,-1,-1,-1,19,21,-1,-1,-1,-1,-1,-1,-1,-1],"loss_changes":[1.6524896E3,9.054783E2,6.750963E2,4.5651672E2,5.783081E-2,4.748535E-2,2.5309583E2,1.1914722E2,2.9016373E2,0E0,0E0,0E0,0E0,2.5996912E2,3.16698E1,0E0,0E0,0E0,0E0,0E0,0E0,0E0,0E0],"parents":[2147483647,0,0,1,1,2,2,3,3,4,4,5,5,6,6,7,7,8,8,13,13,14,14],"right_children":[2,4,6,8,10,12,14,16,18,-1,-1,-1,-1,20,22,-1,-1,-1,-1,-1,-1,-1,-1],"split_conditions":[1E0,7.8125E-1,3.90625E-1,1E0,1E0,1E0,1E0,1E0,1E0,2.2444025E-1,2.1032718E-1,-2.278656E-1,-2.477024E-1,1E0,1E0,-2.2569612E-1,-1.120459E-1,-1.20740764E-1,8.797087E-2,-3.9422516E-2,1.4579388E-1,1.4680846E-1,1.984491E-1],"split_indices":[1,0,0,4,7,3,3,2,6,0,0,0,0,7,6,0,0,0,0,0,0,0,0],"split_type":[0,0,0,0,0,0,0,0,0,0,0,0,0,0,0,0,0,0,0,0,0,0,0],"sum_hessian":[6.672454E3,3.078911E3,3.5935435E3,2.7152656E3,3.6364526E2,2.0532426E2,3.388219E3,1.6489717E3,1.066294E3,1.1288143E2,2.5076384E2,1.4545273E2,5.987152E1,1.2423223E3,2.1458967E3,1.0891123E3,5.598593E2,5.4752625E2,5.187677E2,5.241752E2,7.1814716E2,7.2152155E2,1.4243752E3],"tree_param":{"num_deleted":"0","num_feature":"10","num_nodes":"23","size_leaf_vector":"1"}},{"base_weights":[1.1250856E-1,-1.1179714E0,2.800667E-1,-2.1981023E-1,-2.3262803E-1,-2.2285007E-1,6.42759E-1,-4.5789784E-1,2.099011E-1,2.661495E-1,8.591945E-1,-1.8925387E-1,2.002244E-2,-4.3685455E-2,1.3000397E-1,1.3112742E-1,1.9517837E-1],"categories":[],"categories_nodes":[],"categories_segments":[],"categories_sizes":[],"default_left":[0,0,0,0,0,0,0,0,0,0,0,0,0,0,0,0,0],"id":13,"left_children":[1,3,5,-1,-1,7,9,11,-1,13,15,-1,-1,-1,-1,-1,-1],"loss_changes":[1.2541321E3,2.6898193E-1,9.766721E2,0E0,0E0,6.7089624E2,2.5343762E2,5.161543E2,0E0,2.1130463E2,4.6696045E1,0E0,0E0,0E0,0E0,0E0,0E0],"parents":[2147483647,0,0,1,1,2,2,5,5,6,6,7,7,9,9,10,10],"right_children":[2,4,6,-1,-1,8,10,12,-1,14,16,-1,-1,-1,-1,-1,-1],"split_conditions":[3.90625E-1,1E0,1E0,-2.1981023E-1,-2.3262803E-1,7.8125E-1,1E0,1E0,2.099011E-1,1E0,1E0,-1.8925387E-1,2.002244E-2,-4.3685455E-2,1.3000397E-1,1.3112742E-1,1.9517837E-1],"split_indices":[0,6,9,0,0,0,8,2,0,7,2,0,0,0,0,0,0],"split_type":[0,0,0,0,0,0,0,0,0,0,0,0,0,0,0,0,0],"sum_hessian":[6.0829507E3,7.289163E2,5.354034E3,5.170722E2,2.1184412E2,2.2432544E3,3.11078E3,1.8935864E3,3.4966785E2,1.1355485E3,1.9752317E3,1.0098624E3,8.83724E2,5.0183817E2,6.3371027E2,7.203065E2,1.2549252E3],"tree_param":{"num_deleted":"0","num_feature":"10","num_nodes":"17","size_leaf_vector":"1"}},{"base_weights":[1.0718222E-1,-3.7063608E-1,5.512641E-1,-5.292897E-1,2.1191347E-1,-2.2417644E-1,6.50804E-1,-8.879079E-1,-3.304611E-2,3.0177692E-1,8.686655E-1,-2.2452016E-1,-1.1141089E-1,-1.0263487E-1,8.8979274E-2,-3.6448937E-2,1.3203786E-1,1.3212584E-1,1.9563033E-1],"categories":[],"categories_nodes":[],"categories_segments":[],"categories_sizes":[],"default_left":[0,0,0,0,0,0,0,0,0,0,0,0,0,0,0,0,0,0,0],"id":14,"left_children":[1,3,5,7,-1,-1,9,11,13,15,17,-1,-1,-1,-1,-1,-1,-1,-1],"loss_changes":[1.1727411E3,6.040646E2,4.7682446E2,4.2638336E2,0E0,0E0,2.0545044E2,1.0778015E2,2.307758E2,1.8037753E2,3.768286E1,0E0,0E0,0E0,0E0,0E0,0E0,0E0,0E0],"parents":[2147483647,0,0,1,1,2,2,3,3,6,6,7,7,8,8,9,9,10,10],"right_children":[2,4,6,8,-1,-1,10,12,14,16,18,-1,-1,-1,-1,-1,-1,-1,-1],"split_conditions":[1E0,7.8125E-1,3.90625E-1,1E0,2.1191347E-1,-2.2417644E-1,1E0,1E0,1E0,1E0,1E0,-2.2452016E-1,-1.1141089E-1,-1.0263487E-1,8.8979274E-2,-3.6448937E-2,1.3203786E-1,1.3212584E-1,1.9563033E-1],"split_indices":[5,0,0,6,0,0,3,9,8,8,6,0,0,0,0,0,0,0,0],"split_type":[0,0,0,0,0,0,0,0,0,0,0,0,0,0,0,0,0,0,0],"sum_hessian":[5.526551E3,2.6620544E3,2.8644966E3,2.3963574E3,2.6569705E2,1.6082394E2,2.7036726E3,1.3909125E3,1.005445E3,1.0393191E3,1.6643534E3,8.133888E2,5.775236E2,5.0167627E2,5.0376874E2,4.4207907E2,5.9724005E2,5.7444946E2,1.0899039E3],"tree_param":{"num_deleted":"0","num_feature":"10","num_nodes":"19","size_leaf_vector":"1"}},{"base_weights":[1.0198371E-1,-3.6993366E-1,5.313372E-1,-5.1005125E-1,2.095028E-1,-2.18816E-1,6.100691E-1,-8.523319E-1,-1.1844198E-1,2.5794682E-1,8.4531033E-1,-2.177093E-1,-9.5215976E-2,-1.05395176E-1,6.639097E-2,-4.9145058E-2,1.2494624E-1,1.287929E-1,1.9279622E-1],"categories":[],"categories_nodes":[],"categories_segments":[],"categories_sizes":[],"default_left":[0,0,0,0,0,0,0,0,0,0,0,0,0,0,0,0,0,0,0],"id":15,"left_children":[1,3,5,7,-1,-1,9,11,13,15,17,-1,-1,-1,-1,-1,-1,-1,-1],"loss_changes":[1.0252875E3,4.7873944E2,3.39097E2,2.939433E2,0E0,0E0,2.0921667E2,1.0381665E2,1.8834486E2,1.8710571E2,3.5974243E1,0E0,0E0,0E0,0E0,0E0,0E0,0E0,0E0],"parents":[2147483647,0,0,1,1,2,2,3,3,6,6,7,7,8,8,9,9,10,10],"right_children":[2,4,6,8,-1,-1,10,12,14,16,18,-1,-1,-1,-1,-1,-1,-1,-1],"split_conditions":[1E0,7.8125E-1,3.90625E-1,1E0,2.095028E-1,-2.18816E-1,1E0,1E0,1E0,1E0,1E0,-2.177093E-1,-9.5215976E-2,-1.05395176E-1,6.639097E-2,-4.9145058E-2,1.2494624E-1,1.287929E-1,1.9279622E-1],"split_indices":[1,0,0,9,0,0,2,7,2,9,6,0,0,0,0,0,0,0,0],"split_type":[0,0,0,0,0,0,0,0,0,0,0,0,0,0,0,0,0,0,0],"sum_hessian":[5.059888E3,2.4103594E3,2.6495288E3,2.1936475E3,2.1671194E2,1.2229025E2,2.5272385E3,1.170348E3,1.0232993E3,1.01242255E3,1.514816E3,7.186915E2,4.5165652E2,5.3669415E2,4.8660516E2,4.2650366E2,5.859189E2,5.6228503E2,9.5253107E2],"tree_param":{"num_deleted":"0","num_feature":"10","num_nodes":"19","size_leaf_vector":"1"}},{"base_weights":[9.721223E-2,-3.4247547E-1,5.087036E-1,-4.8472652E-1,2.0931129E-1,-2.1873756E-1,5.9398997E-1,-7.775198E-1,-6.310485E-2,2.2549674E-1,8.461558E-1,-1.9850986E-1,-8.6603254E-2,-1.0455435E-1,7.611117E-2,-4.7474027E-2,1.2695742E-1,1.3172188E-1,1.9074677E-1],"categories":[],"categories_nodes":[],"categories_segments":[],"categories_sizes":[],"default_left":[0,0,0,0,0,0,0,0,0,0,0,0,0,0,0,0,0,0,0],"id":16,"left_children":[1,3,5,7,-1,-1,9,11,13,15,17,-1,-1,-1,-1,-1,-1,-1,-1],"loss_changes":[8.433352E2,4.4521387E2,3.2907703E2,2.5224487E2,0E0,0E0,2.1231946E2,8.9165955E1,1.7092749E2,1.7608693E2,2.7158691E1,0E0,0E0,0E0,0E0,0E0,0E0,0E0,0E0],"parents":[2147483647,0,0,1,1,2,2,3,3,6,6,7,7,8,8,9,9,10,10],"right_children":[2,4,6,8,-1,-1,10,12,14,16,18,-1,-1,-1,-1,-1,-1,-1,-1],"split_conditions":[1E0,7.8125E-1,3.90625E-1,1E0,2.0931129E-1,-2.1873756E-1,1E0,1E0,1E0,1E0,1E0,-1.9850986E-1,-8.6603254E-2,-1.0455435E-1,7.611117E-2,-4.7474027E-2,1.2695742E-1,1.3172188E-1,1.9074677E-1],"split_indices":[4,0,0,3,0,0,7,1,7,5,1,0,0,0,0,0,0,0,0],"split_type":[0,0,0,0,0,0,0,0,0,0,0,0,0,0,0,0,0,0,0],"sum_hessian":[4.6608843E3,2.253134E3,2.4077502E3,2.0439498E3,2.0918422E2,1.2155607E2,2.286194E3,1.2060748E3,8.37875E2,9.2908954E2,1.3571046E3,7.4228375E2,4.6379105E2,4.1161624E2,4.2625876E2,4.359129E2,4.9317667E2,4.9528653E2,8.6181805E2],"tree_param":{"num_deleted":"0","num_feature":"10","num_nodes":"19","size_leaf_vector":"1"}},{"base_weights":[7.2556235E-2,-3.4601665E-1,4.721985E-1,-5.0165325E-1,2.0837846E-1,-2.192153E-1,5.7027984E-1,-7.964561E-1,-9.983377E-2,2.0849873E-1,8.0469376E-1,-1.9836794E-1,-1.0548218E-1,-1.08547606E-1,7.18852E-2,-4.841889E-2,1.1267554E-1,1.1704334E-1,1.8764319E-1],"categories":[],"categories_nodes":[],"categories_segments":[],"categories_sizes":[],"default_left":[0,0,0,0,0,0,0,0,0,0,0,0,0,0,0,0,0,0,0],"id":17,"left_children":[1,3,5,7,-1,-1,9,11,13,15,17,-1,-1,-1,-1,-1,-1,-1,-1],"loss_changes":[7.1258875E2,4.494074E2,3.3522534E2,2.2151999E2,0E0,0E0,1.7383221E2,5.651422E1,1.6113412E2,1.2905447E2,3.62619E1,0E0,0E0,0E0,0E0,0E0,0E0,0E0,0E0],"parents":[2147483647,0,0,1,1,2,2,3,3,6,6,7,7,8,8,9,9,10,10],"right_children":[2,4,6,8,-1,-1,10,12,14,16,18,-1,-1,-1,-1,-1,-1,-1,-1],"split_conditions":[1E0,7.8125E-1,3.90625E-1,1E0,2.0837846E-1,-2.192153E-1,1E0,1E0,1E0,1E0,1E0,-1.9836794E-1,-1.0548218E-1,-1.08547606E-1,7.18852E-2,-4.841889E-2,1.1267554E-1,1.1704334E-1,1.8764319E-1],"split_indices":[6,0,0,4,0,0,8,7,8,9,4,0,0,0,0,0,0,0,0],"split_type":[0,0,0,0,0,0,0,0,0,0,0,0,0,0,0,0,0,0,0],"sum_hessian":[4.259598E3,2.0804072E3,2.179191E3,1.8707609E3,2.0964645E2,1.2814679E2,2.0510442E3,1.0788754E3,7.918855E2,8.066783E2,1.2443658E3,6.2462524E2,4.5425012E2,4.0322247E2,3.8866306E2,3.553002E2,4.5137808E2,4.711691E2,7.731968E2],"tree_param":{"num_deleted":"0","num_feature":"10","num_nodes":"19","size_leaf_vector":"1"}},{"base_weights":[7.11488E-2,-3.1148478E-1,4.4433442E-1,-6.5743834E-1,9.236088E-2,8.519953E-2,7.344115E-1,-8.979737E-1,-3.2055196E-1,-3.4455073E-1,4.7352573E-1,-3.1605154E-1,5.027841E-1,4.5614868E-1,9.074188E-1,-2.1076572E-1,-1.2594923E-1,-1.4281934E-1,1.969976E-2,-1.3525657E-1,1.8929841E-2,1.2533768E-2,1.5981801E-1,-1.3470767E-1,2.217321E-2,2.5489021E-2,1.5367591E-1,1.1201635E-3,1.5476584E-1,1.563137E-1,1.9605687E-1],"categories":[],"categories_nodes":[],"categories_segments":[],"categories_sizes":[],"default_left":[0,0,0,0,0,0,0,0,0,0,0,0,0,0,0,0,0,0,0,0,0,0,0,0,0,0,0,0,0,0,0],"id":18,"left_children":[1,3,5,7,9,11,13,15,17,19,21,23,25,27,29,-1,-1,-1,-1,-1,-1,-1,-1,-1,-1,-1,-1,-1,-1,-1,-1],"loss_changes":[5.627779E2,2.7191418E2,2.0777716E2,8.478543E1,1.4953426E2,1.4946143E2,5.295172E1,2.5320526E1,7.2130035E1,6.0997395E1,6.406305E1,6.946411E1,4.348105E1,6.054071E1,5.98468E0,0E0,0E0,0E0,0E0,0E0,0E0,0E0,0E0,0E0,0E0,0E0,0E0,0E0,0E0,0E0,0E0],"parents":[2147483647,0,0,1,1,2,2,3,3,4,4,5,5,6,6,7,7,8,8,9,9,10,10,11,11,12,12,13,13,14,14],"right_children":[2,4,6,8,10,12,14,16,18,20,22,24,26,28,30,-1,-1,-1,-1,-1,-1,-1,-1,-1,-1,-1,-1,-1,-1,-1,-1],"split_conditions":[1E0,1E0,1E0,1E0,1E0,1E0,1E0,1E0,1E0,1E0,1E0,1E0,1E0,1E0,1E0,-2.1076572E-1,-1.2594923E-1,-1.4281934E-1,1.969976E-2,-1.3525657E-1,1.8929841E-2,1.2533768E-2,1.5981801E-1,-1.3470767E-1,2.217321E-2,2.5489021E-2,1.5367591E-1,1.1201635E-3,1.5476584E-1,1.563137E-1,1.9605687E-1],"split_indices":[2,6,5,3,8,8,7,5,8,3,5,4,9,9,8,0,0,0,0,0,0,0,0,0,0,0,0,0,0,0,0],"split_type":[0,0,0,0,0,0,0,0,0,0,0,0,0,0,0,0,0,0,0,0,0,0,0,0,0,0,0,0,0,0,0],"sum_hessian":[3.9409153E3,1.9457021E3,1.9952131E3,1.0480646E3,8.976376E2,8.9170123E2,1.1035118E3,6.1120416E2,4.368604E2,4.1811685E2,4.7952072E2,4.5463437E2,4.3706683E2,4.2342383E2,6.80088E2,3.8615903E2,2.2504512E2,2.2537312E2,2.114873E2,2.3830008E2,1.7981676E2,2.1217973E2,2.6734097E2,2.4753398E2,2.0710039E2,1.8133257E2,2.5573428E2,1.7526797E2,2.4815587E2,2.5030939E2,4.2977866E2],"tree_param":{"num_deleted":"0","num_feature":"10","num_nodes":"31","size_leaf_vector":"1"}},{"base_weights":[6.352493E-2,-8.053036E-2,2.05361E-1,-4.3708494E-1,3.031921E-1,-7.1322143E-1,-8.384367E-2,-2.1698992E-1,4.091548E-1,-1.8059799E-1,-8.313432E-2,-8.134162E-2,6.1076265E-2,1.5104073E-2,1.3797164E-1],"categories":[],"categories_nodes":[],"categories_segments":[],"categories_sizes":[],"default_left":[0,0,0,0,0,0,0,0,0,0,0,0,0,0,0],"id":19,"left_children":[1,3,-1,5,7,9,11,-1,13,-1,-1,-1,-1,-1,-1],"loss_changes":[5.119246E2,4.3901593E2,0E0,1.6216061E2,2.2728122E2,5.2534546E1,9.176593E1,0E0,1.3439116E2,0E0,0E0,0E0,0E0,0E0,0E0],"parents":[2147483647,0,0,1,1,3,3,4,4,5,5,6,6,8,8],"right_children":[2,4,-1,6,8,10,12,-1,14,-1,-1,-1,-1,-1,-1],"split_conditions":[7.8125E-1,1E0,2.05361E-1,1E0,3.90625E-1,1E0,1E0,-2.1698992E-1,1E0,-1.8059799E-1,-8.313432E-2,-8.134162E-2,6.1076265E-2,1.5104073E-2,1.3797164E-1],"split_indices":[0,3,0,6,0,5,2,0,4,0,0,0,0,0,0],"split_type":[0,0,0,0,0,0,0,0,0,0,0,0,0,0,0],"sum_hessian":[3.6882908E3,3.2084636E3,4.7982712E2,1.6632344E3,1.5452292E3,9.3328217E2,7.299522E2,1.0945605E2,1.4357732E3,5.695197E2,3.6376245E2,3.991267E2,3.308255E2,6.5625464E2,7.7951855E2],"tree_param":{"num_deleted":"0","num_feature":"10","num_nodes":"15","size_leaf_vector":"1"}},{"base_weights":[7.209592E-2,-3.001366E-1,4.35875E-1,-6.290043E-1,7.391926E-2,1.00081466E-1,7.1629155E-1,-6.989728E-1,2.0769496E-1,-2.1399029E-1,1.9166669E-1,-2.5105768E-1,4.5725256E-1,-2.11212E-1,7.513098E-1,-1.7799856E-1,-8.7507695E-2,-3.5013523E-2,1.031394E-1,-8.067681E-2,2.1051681E-1,-2.1087816E-1,1.0320941E-1,1.05072215E-1,1.828538E-1],"categories":[],"categories_nodes":[],"categories_segments":[],"categories_sizes":[],"default_left":[0,0,0,0,0,0,0,0,0,0,0,0,0,0,0,0,0,0,0,0,0,0,0,0,0],"id":20,"left_children":[1,3,5,7,9,11,13,15,-1,-1,17,19,21,-1,23,-1,-1,-1,-1,-1,-1,-1,-1,-1,-1],"loss_changes":[4.6615512E2,2.0934833E2,1.638581E2,1.0568445E2,1.0713391E2,9.943758E1,5.8924194E1,4.3233093E1,0E0,0E0,8.5817215E1,7.932948E1,3.493808E1,0E0,3.406378E1,0E0,0E0,0E0,0E0,0E0,0E0,0E0,0E0,0E0,0E0],"parents":[2147483647,0,0,1,1,2,2,3,3,4,4,5,5,6,6,7,7,10,10,11,11,12,12,14,14],"right_children":[2,4,6,8,10,12,14,16,-1,-1,18,20,22,-1,24,-1,-1,-1,-1,-1,-1,-1,-1,-1,-1],"split_conditions":[1E0,1E0,1E0,7.8125E-1,3.90625E-1,1E0,3.90625E-1,1E0,2.0769496E-1,-2.1399029E-1,1E0,7.8125E-1,3.90625E-1,-2.11212E-1,1E0,-1.7799856E-1,-8.7507695E-2,-3.5013523E-2,1.031394E-1,-8.067681E-2,2.1051681E-1,-2.1087816E-1,1.0320941E-1,1.05072215E-1,1.828538E-1],"split_indices":[1,7,7,0,0,2,0,4,0,0,8,0,0,0,5,0,0,0,0,0,0,0,0,0,0],"split_type":[0,0,0,0,0,0,0,0,0,0,0,0,0,0,0,0,0,0,0,0,0,0,0,0,0],"sum_hessian":[3.4422385E3,1.7012242E3,1.7410144E3,9.054006E2,7.9582367E2,7.925013E2,9.485131E2,8.690526E2,3.6347992E1,7.411987E1,7.217038E2,3.994989E2,3.930024E2,1.8265858E1,9.3024725E2,5.0179074E2,3.6726187E2,3.3842032E2,3.8328345E2,3.57833E2,4.1665874E1,1.4586269E1,3.7841614E2,3.9022403E2,5.400232E2],"tree_param":{"num_deleted":"0","num_feature":"10","num_nodes":"25","size_leaf_vector":"1"}},{"base_weights":[5.43448E-2,-3.064854E-1,3.772167E-1,-4.135234E-1,2.038176E-1,-2.0957795E-1,4.5773974E-1,-6.9809854E-1,-7.232002E-2,1.7561834E-1,7.0586324E-1,-1.7820485E-1,-8.592331E-2,-9.455946E-2,7.2210066E-2,-2.9564833E-2,1.011004E-1,9.591975E-2,1.7566006E-1],"categories":[],"categories_nodes":[],"categories_segments":[],"categories_sizes":[],"default_left":[0,0,0,0,0,0,0,0,0,0,0,0,0,0,0,0,0,0,0],"id":21,"left_children":[1,3,5,7,-1,-1,9,11,13,15,17,-1,-1,-1,-1,-1,-1,-1,-1],"loss_changes":[3.7202304E2,2.1392245E2,1.9339395E2,1.353999E2,0E0,0E0,1.11578094E2,3.9227417E1,1.10200035E2,7.973305E1,3.293213E1,0E0,0E0,0E0,0E0,0E0,0E0,0E0,0E0],"parents":[2147483647,0,0,1,1,2,2,3,3,6,6,7,7,8,8,9,9,10,10],"right_children":[2,4,6,8,-1,-1,10,12,14,16,18,-1,-1,-1,-1,-1,-1,-1,-1],"split_conditions":[1E0,7.8125E-1,3.90625E-1,1E0,2.038176E-1,-2.0957795E-1,1E0,1E0,1E0,1E0,1E0,-1.7820485E-1,-8.592331E-2,-9.455946E-2,7.2210066E-2,-2.9564833E-2,1.011004E-1,9.591975E-2,1.7566006E-1],"split_indices":[9,0,0,3,0,0,3,2,6,5,2,0,0,0,0,0,0,0,0],"split_type":[0,0,0,0,0,0,0,0,0,0,0,0,0,0,0,0,0,0,0],"sum_hessian":[3.1930178E3,1.5077289E3,1.6852891E3,1.3952119E3,1.1251694E2,9.000079E1,1.5952882E3,7.605172E2,6.346947E2,7.4676984E2,8.485184E2,4.421749E2,3.183423E2,3.2998105E2,3.0471365E2,3.7694092E2,3.6982892E2,3.673956E2,4.811228E2],"tree_param":{"num_deleted":"0","num_feature":"10","num_nodes":"19","size_leaf_vector":"1"}},{"base_weights":[4.4977892E-2,-6.1970964E-2,2.035075E-1,-3.613854E-1,2.6573157E-1,-6.361734E-1,-4.7640417E-2,-3.3810005E-2,5.817885E-1,-1.6522573E-1,-7.54645E-2,-8.349054E-2,6.863841E-2,-7.002789E-2,6.814617E-2,-2.1415694E-1,1.2921901E-1],"categories":[],"categories_nodes":[],"categories_segments":[],"categories_sizes":[],"default_left":[0,0,0,0,0,0,0,0,0,0,0,0,0,0,0,0,0],"id":22,"left_children":[1,3,-1,5,7,9,11,13,15,-1,-1,-1,-1,-1,-1,-1,-1],"loss_changes":[3.1318527E2,2.6609827E2,0E0,1.2211583E2,1.2262295E2,3.6989685E1,9.5704285E1,7.8755585E1,6.699039E1,0E0,0E0,0E0,0E0,0E0,0E0,0E0,0E0],"parents":[2147483647,0,0,1,1,3,3,4,4,5,5,6,6,7,7,8,8],"right_children":[2,4,-1,6,8,10,12,14,16,-1,-1,-1,-1,-1,-1,-1,-1],"split_conditions":[7.8125E-1,1E0,2.035075E-1,1E0,1E0,1E0,1E0,1E0,3.90625E-1,-1.6522573E-1,-7.54645E-2,-8.349054E-2,6.863841E-2,-7.002789E-2,6.814617E-2,-2.1415694E-1,1.2921901E-1],"split_indices":[0,7,0,8,6,3,4,2,0,0,0,0,0,0,0,0,0],"split_type":[0,0,0,0,0,0,0,0,0,0,0,0,0,0,0,0,0],"sum_hessian":[3.0099087E3,2.7117034E3,2.9820538E2,1.4171656E3,1.2945376E3,7.552616E2,6.6190405E2,6.645172E2,6.300204E2,4.3525128E2,3.200103E2,3.4022574E2,3.216783E2,3.6040237E2,3.0411484E2,2.348085E1,6.0653955E2],"tree_param":{"num_deleted":"0","num_feature":"10","num_nodes":"17","size_leaf_vector":"1"}},{"base_weights":[4.507741E-2,-2.9497403E-1,3.8653725E-1,-5.795023E-1,5.2466374E-2,5.44902E-2,6.7237335E-1,-6.174771E-1,2.0163023E-1,-2.5751525E-1,3.9605233E-1,-2.7880332E-1,4.4879213E-1,-2.0755856E-1,7.047563E-1,-1.6291113E-1,-7.041066E-2,-6.421192E-2,2.0220017E-1,1.1480329E-2,1.4013924E-1,-1.2494544E-1,1.8705932E-2,2.9621301E-2,1.4297102E-1,9.9399254E-2,1.741432E-1],"categories":[],"categories_nodes":[],"categories_segments":[],"categories_sizes":[],"default_left":[0,0,0,0,0,0,0,0,0,0,0,0,0,0,0,0,0,0,0,0,0,0,0,0,0,0,0],"id":23,"left_children":[1,3,5,7,9,11,13,15,-1,17,19,21,23,-1,25,-1,-1,-1,-1,-1,-1,-1,-1,-1,-1,-1,-1],"loss_changes":[3.3125952E2,1.4134271E2,1.3503857E2,4.7406433E1,6.854963E1,8.661232E1,4.23981E1,4.001126E1,0E0,2.7220608E1,3.1422657E1,4.603533E1,2.4061214E1,0E0,2.5706177E1,0E0,0E0,0E0,0E0,0E0,0E0,0E0,0E0,0E0,0E0,0E0,0E0],"parents":[2147483647,0,0,1,1,2,2,3,3,4,4,5,5,6,6,7,7,9,9,10,10,11,11,12,12,14,14],"right_children":[2,4,6,8,10,12,14,16,-1,18,20,22,24,-1,26,-1,-1,-1,-1,-1,-1,-1,-1,-1,-1,-1,-1],"split_conditions":[1E0,1E0,1E0,7.8125E-1,1E0,1E0,3.90625E-1,1E0,2.0163023E-1,7.8125E-1,1E0,1E0,1E0,-2.0755856E-1,1E0,-1.6291113E-1,-7.041066E-2,-6.421192E-2,2.0220017E-1,1.1480329E-2,1.4013924E-1,-1.2494544E-1,1.8705932E-2,2.9621301E-2,1.4297102E-1,9.9399254E-2,1.741432E-1],"split_indices":[1,5,8,0,4,5,0,2,0,0,7,2,4,0,4,0,0,0,0,0,0,0,0,0,0,0,0],"split_type":[0,0,0,0,0,0,0,0,0,0,0,0,0,0,0,0,0,0,0,0,0,0,0,0,0,0,0],"sum_hessian":[2.852607E3,1.4291112E3,1.4234957E3,7.858108E2,6.433004E2,6.587338E2,7.6476196E2,7.675753E2,1.8235422E1,3.3804855E2,3.0525183E2,3.5686252E2,3.0187128E2,1.4096998E1,7.50665E2,4.4016608E2,3.2740924E2,3.2206857E2,1.5979997E1,1.447693E2,1.6048253E2,1.8509598E2,1.7176656E2,1.4196451E2,1.5990677E2,3.337967E2,4.1686832E2],"tree_param":{"num_deleted":"0","num_feature":"10","num_nodes":"27","size_leaf_vector":"1"}},{"base_weights":[4.3845713E-2,-4.3458514E-2,2.0270751E-1,-3.080272E-1,2.5661638E-1,-5.511237E-1,-2.4356497E-2,-2.0894487E-1,3.2739922E-1,-1.4646362E-1,-6.516993E-2,-6.525918E-2,6.429744E-2,1.0068241E-2,1.2166089E-1],"categories":[],"categories_nodes":[],"categories_segments":[],"categories_sizes":[],"default_left":[0,0,0,0,0,0,0,0,0,0,0,0,0,0,0],"id":24,"left_children":[1,3,-1,5,7,9,11,-1,13,-1,-1,-1,-1,-1,-1],"loss_changes":[2.2553003E2,1.9395364E2,0E0,8.948241E1,1.05385925E2,2.8404251E1,6.2615143E1,0E0,8.442125E1,0E0,0E0,0E0,0E0,0E0,0E0],"parents":[2147483647,0,0,1,1,3,3,4,4,5,5,6,6,8,8],"right_children":[2,4,-1,6,8,10,12,-1,14,-1,-1,-1,-1,-1,-1],"split_conditions":[7.8125E-1,1E0,2.0270751E-1,1E0,3.90625E-1,1E0,1E0,-2.0894487E-1,1E0,-1.4646362E-1,-6.516993E-2,-6.525918E-2,6.429744E-2,1.0068241E-2,1.2166089E-1],"split_indices":[0,6,0,2,0,1,3,0,3,0,0,0,0,0,0],"split_type":[0,0,0,0,0,0,0,0,0,0,0,0,0,0,0],"sum_hessian":[2.662709E3,2.4427715E3,2.1993756E2,1.2983652E3,1.1444062E3,6.989453E2,5.9941986E2,5.8891888E1,1.0855144E3,3.8700052E2,3.1194476E2,3.201805E2,2.7923935E2,5.4673816E2,5.3877625E2],"tree_param":{"num_deleted":"0","num_feature":"10","num_nodes":"15","size_leaf_vector":"1"}},{"base_weights":[3.3398174E-2,-2.7677062E-1,3.2320744E-1,-5.416223E-1,5.6006253E-2,-2.0585136E-1,3.8248482E-1,-5.793421E-1,2.0040058E-1,-2.9178938E-1,3.9397886E-1,1.131529E-1,6.2965304E-1,-1.5439054E-1,-6.989825E-2,-1.3107237E-1,1.7331628E-2,1.2921772E-2,1.4508556E-1,-4.007686E-2,7.93137E-2,8.4534965E-2,1.6454697E-1],"categories":[],"categories_nodes":[],"categories_segments":[],"categories_sizes":[],"default_left":[0,0,0,0,0,0,0,0,0,0,0,0,0,0,0,0,0,0,0,0,0,0,0],"id":25,"left_children":[1,3,5,7,9,-1,11,13,-1,15,17,19,21,-1,-1,-1,-1,-1,-1,-1,-1,-1,-1],"loss_changes":[2.272039E2,1.0764164E2,1.0474252E2,3.9603683E1,6.360334E1,0E0,8.327016E1,2.9249222E1,0E0,3.6730175E1,2.9885254E1,5.329932E1,2.5924622E1,0E0,0E0,0E0,0E0,0E0,0E0,0E0,0E0,0E0,0E0],"parents":[2147483647,0,0,1,1,2,2,3,3,4,4,6,6,7,7,9,9,10,10,11,11,12,12],"right_children":[2,4,6,8,10,-1,12,14,-1,16,18,20,22,-1,-1,-1,-1,-1,-1,-1,-1,-1,-1],"split_conditions":[1E0,1E0,3.90625E-1,7.8125E-1,1E0,-2.0585136E-1,1E0,1E0,2.0040058E-1,1E0,1E0,1E0,1E0,-1.5439054E-1,-6.989825E-2,-1.3107237E-1,1.7331628E-2,1.2921772E-2,1.4508556E-1,-4.007686E-2,7.93137E-2,8.4534965E-2,1.6454697E-1],"split_indices":[9,4,0,0,8,0,1,8,0,5,1,8,2,0,0,0,0,0,0,0,0,0,0],"split_type":[0,0,0,0,0,0,0,0,0,0,0,0,0,0,0,0,0,0,0,0,0,0,0],"sum_hessian":[2.527332E3,1.2206205E3,1.3067115E3,6.798092E2,5.408113E2,5.472776E1,1.2519838E3,6.637179E2,1.6091272E1,2.6639322E2,2.7441803E2,5.993931E2,6.5259064E2,3.6074756E2,3.0297034E2,1.359642E2,1.3042902E2,1.3785193E2,1.365661E2,2.844206E2,3.149725E2,3.1536505E2,3.372256E2],"tree_param":{"num_deleted":"0","num_feature":"10","num_nodes":"23","size_leaf_vector":"1"}},{"base_weights":[3.3159625E-2,-2.3031421E-1,3.152997E-1,-4.7117198E-1,6.1459705E-2,3.146962E-2,6.07859E-1,-6.7618406E-1,-2.2566168E-1,-2.4769698E-1,3.4107935E-1,-2.3057254E-1,2.979935E-1,3.4731686E-1,8.232615E-1,-1.4096874E-1,1.9877715E-1,-1.0084722E-1,1.1334413E-2,-1.0771998E-1,1.4693561E-2,-1.3890656E-3,1.3541684E-1,-1.0759002E-1,1.1371284E-2,8.1856055E-3,1.2206066E-1,1.7860964E-2,1.2193888E-1,-1.9883172E-1,1.6861083E-1],"categories":[],"categories_nodes":[],"categories_segments":[],"categories_sizes":[],"default_left":[0,0,0,0,0,0,0,0,0,0,0,0,0,0,0,0,0,0,0,0,0,0,0,0,0,0,0,0,0,0,0],"id":26,"left_children":[1,3,5,7,9,11,13,15,17,19,21,23,25,27,29,-1,-1,-1,-1,-1,-1,-1,-1,-1,-1,-1,-1,-1,-1,-1,-1],"loss_changes":[1.8122769E2,8.862225E1,9.770113E1,3.465735E1,4.928125E1,4.1770466E1,3.238231E1,1.8042694E1,2.4795963E1,2.5325539E1,3.5083763E1,2.667488E1,2.3748034E1,1.7708384E1,1.1471771E1,0E0,0E0,0E0,0E0,0E0,0E0,0E0,0E0,0E0,0E0,0E0,0E0,0E0,0E0,0E0,0E0],"parents":[2147483647,0,0,1,1,2,2,3,3,4,4,5,5,6,6,7,7,8,8,9,9,10,10,11,11,12,12,13,13,14,14],"right_children":[2,4,6,8,10,12,14,16,18,20,22,24,26,28,30,-1,-1,-1,-1,-1,-1,-1,-1,-1,-1,-1,-1,-1,-1,-1,-1],"split_conditions":[1E0,1E0,1E0,1E0,1E0,1E0,1E0,7.8125E-1,1E0,1E0,1E0,1E0,1E0,1E0,3.90625E-1,-1.4096874E-1,1.9877715E-1,-1.0084722E-1,1.1334413E-2,-1.0771998E-1,1.4693561E-2,-1.3890656E-3,1.3541684E-1,-1.0759002E-1,1.1371284E-2,8.1856055E-3,1.2206066E-1,1.7860964E-2,1.2193888E-1,-1.9883172E-1,1.6861083E-1],"split_indices":[4,5,7,3,8,8,3,0,7,2,7,2,1,2,0,0,0,0,0,0,0,0,0,0,0,0,0,0,0,0,0],"split_type":[0,0,0,0,0,0,0,0,0,0,0,0,0,0,0,0,0,0,0,0,0,0,0,0,0,0,0,0,0,0,0],"sum_hessian":[2.437624E3,1.2603356E3,1.1772885E3,6.9056177E2,5.6977374E2,5.977888E2,5.794997E2,3.7600122E2,3.1456055E2,2.7043057E2,2.9934317E2,3.0124634E2,2.9654245E2,2.6259766E2,3.1690204E2,3.6977332E2,6.2279096E0,1.5847313E2,1.5608743E2,1.4202846E2,1.2840211E2,1.4694344E2,1.5239972E2,1.4569757E2,1.5554878E2,1.6289507E2,1.3364737E2,1.3266002E2,1.2993764E2,3.30658E0,3.1359546E2],"tree_param":{"num_deleted":"0","num_feature":"10","num_nodes":"31","size_leaf_vector":"1"}},{"base_weights":[3.749021E-2,-2.0508264E-1,9.938896E-2,-1.5612437E-1,3.3704576E-1,-4.030461E-1,1.1812262E-1,1.17796496E-1,5.764576E-1,-8.885665E-2,2.0141724E-1,-3.485193E-2,8.2706034E-2,-2.901559E-2,7.240353E-2,7.474757E-2,1.5345344E-1],"categories":[],"categories_nodes":[],"categories_segments":[],"categories_sizes":[],"default_left":[0,0,0,0,0,0,0,0,0,0,0,0,0,0,0,0,0],"id":27,"left_children":[1,-1,3,5,7,9,11,13,15,-1,-1,-1,-1,-1,-1,-1,-1],"loss_changes":[1.5258507E2,0E0,1.3318773E2,7.158557E1,5.957434E1,3.233307E1,4.3260284E1,3.8130676E1,2.0860077E1,0E0,0E0,0E0,0E0,0E0,0E0,0E0,0E0],"parents":[2147483647,0,0,2,2,3,3,4,4,5,5,6,6,7,7,8,8],"right_children":[2,-1,4,6,8,10,12,14,16,-1,-1,-1,-1,-1,-1,-1,-1],"split_conditions":[3.90625E-1,-2.0508264E-1,1E0,1E0,1E0,7.8125E-1,1E0,1E0,1E0,-8.885665E-2,2.0141724E-1,-3.485193E-2,8.2706034E-2,-2.901559E-2,7.240353E-2,7.474757E-2,1.5345344E-1],"split_indices":[0,0,9,5,3,0,3,8,6,0,0,0,0,0,0,0,0],"split_type":[0,0,0,0,0,0,0,0,0,0,0,0,0,0,0,0,0],"sum_hessian":[2.320343E3,1.2751573E2,2.1928274E3,1.0565289E3,1.1362983E3,5.561289E2,5.004E2,5.934207E2,5.428777E2,5.404633E2,1.5665606E1,2.5133823E2,2.4906177E2,2.8561835E2,3.0780237E2,2.6362125E2,2.792564E2],"tree_param":{"num_deleted":"0","num_feature":"10","num_nodes":"17","size_leaf_vector":"1"}},{"base_weights":[4.3620083E-2,-1.9876455E-1,3.08734E-1,-2.5176275E-1,2.0278613E-1,4.983044E-2,5.853039E-1,-4.7781685E-1,5.845092E-3,-2.0549892E-1,2.943309E-1,3.6751553E-1,7.970833E-1,-1.3010305E-1,-5.166026E-2,-5.1983453E-2,5.768162E-2,-8.5966446E-2,1.5812943E-2,-1.2718928E-1,7.1375035E-2,2.8819019E-2,1.2460472E-1,-1.8790199E-1,1.622328E-1],"categories":[],"categories_nodes":[],"categories_segments":[],"categories_sizes":[],"default_left":[0,0,0,0,0,0,0,0,0,0,0,0,0,0,0,0,0,0,0,0,0,0,0,0,0],"id":28,"left_children":[1,3,5,7,-1,9,11,13,15,17,19,21,23,-1,-1,-1,-1,-1,-1,-1,-1,-1,-1,-1,-1],"loss_changes":[1.4309775E2,7.469786E1,7.6098114E1,6.4947784E1,0E0,3.4330505E1,2.3565948E1,2.2403473E1,3.9118244E1,1.719437E1,1.634646E1,1.4406704E1,6.428955E0,0E0,0E0,0E0,0E0,0E0,0E0,0E0,0E0,0E0,0E0,0E0,0E0],"parents":[2147483647,0,0,1,1,2,2,3,3,5,5,6,6,7,7,8,8,9,9,10,10,11,11,12,12],"right_children":[2,4,6,8,-1,10,12,14,16,18,20,22,24,-1,-1,-1,-1,-1,-1,-1,-1,-1,-1,-1,-1],"split_conditions":[1E0,7.8125E-1,1E0,1E0,2.0278613E-1,1E0,1E0,1E0,1E0,1E0,4.0625E-1,1E0,3.90625E-1,-1.3010305E-1,-5.166026E-2,-5.1983453E-2,5.768162E-2,-8.5966446E-2,1.5812943E-2,-1.2718928E-1,7.1375035E-2,2.8819019E-2,1.2460472E-1,-1.8790199E-1,1.622328E-1],"split_indices":[6,0,1,3,0,9,5,5,9,5,0,4,0,0,0,0,0,0,0,0,0,0,0,0,0],"split_type":[0,0,0,0,0,0,0,0,0,0,0,0,0,0,0,0,0,0,0,0,0,0,0,0,0],"sum_hessian":[2.2265051E3,1.1629277E3,1.0635773E3,1.1143876E3,4.854017E1,5.495812E2,5.1399615E2,5.937059E2,5.2068164E2,2.6864493E2,2.8093625E2,2.5377074E2,2.6022543E2,3.3192233E2,2.617835E2,2.681394E2,2.5254224E2,1.503881E2,1.18256805E2,1.7539515E1,2.6339673E2,1.3567876E2,1.1809198E2,1.983009E0,2.5824243E2],"tree_param":{"num_deleted":"0","num_feature":"10","num_nodes":"25","size_leaf_vector":"1"}},{"base_weights":[2.6058732E-2,-3.194316E-2,2.0170318E-1,-2.4845597E-1,2.0745301E-1,-4.4768193E-1,-1.2265929E-2,-5.6230746E-2,4.9322253E-1,-1.3635926E-1,-4.379566E-2,-4.5298528E-2,5.6093115E-2,-5.8356356E-2,4.7666144E-2,-2.0456754E-1,1.0619664E-1],"categories":[],"categories_nodes":[],"categories_segments":[],"categories_sizes":[],"default_left":[0,0,0,0,0,0,0,0,0,0,0,0,0,0,0,0,0],"id":29,"left_children":[1,3,-1,5,7,9,11,13,15,-1,-1,-1,-1,-1,-1,-1,-1],"loss_changes":[1.2088125E2,1.0374542E2,0E0,4.9417015E1,7.165402E1,3.0413208E1,3.0183966E1,3.429891E1,2.6123833E1,0E0,0E0,0E0,0E0,0E0,0E0,0E0,0E0],"parents":[2147483647,0,0,1,1,3,3,4,4,5,5,6,6,7,7,8,8],"right_children":[2,4,-1,6,8,10,12,14,16,-1,-1,-1,-1,-1,-1,-1,-1],"split_conditions":[7.8125E-1,1E0,2.0170318E-1,1E0,1E0,1E0,1E0,1E0,3.90625E-1,-1.3635926E-1,-4.379566E-2,-4.5298528E-2,5.6093115E-2,-5.8356356E-2,4.7666144E-2,-2.0456754E-1,1.0619664E-1],"split_indices":[0,2,0,6,8,9,4,6,0,0,0,0,0,0,0,0,0],"split_type":[0,0,0,0,0,0,0,0,0,0,0,0,0,0,0,0,0],"sum_hessian":[2.119435E3,2.0012792E3,1.1815573E2,1.0510819E3,9.501973E2,5.6987787E2,4.8120407E2,4.9405545E2,4.5614185E2,2.8129376E2,2.8858408E2,2.7807068E2,2.0313338E2,2.747152E2,2.1934024E2,1.0957327E1,4.4518454E2],"tree_param":{"num_deleted":"0","num_feature":"10","num_nodes":"17","size_leaf_vector":"1"}},{"base_weights":[8.8058645E-3,-2.5415677E-1,2.9112223E-1,-2.968792E-1,2.0099191E-1,2.4719005E-2,5.735328E-1,-5.01513E-1,-7.731004E-2,-2.1043386E-1,3.0726328E-1,3.2983866E-1,8.066103E-1,-1.2948483E-1,-6.702192E-2,-5.968916E-2,3.250393E-2,-1.6188295E-1,-2.0962466E-2,4.07424E-3,1.1121106E-1,7.33208E-3,1.16109245E-1,-1.876658E-1,1.6448966E-1],"categories":[],"categories_nodes":[],"categories_segments":[],"categories_sizes":[],"default_left":[0,0,0,0,0,0,0,0,0,0,0,0,0,0,0,0,0,0,0,0,0,0,0,0,0],"id":30,"left_children":[1,3,5,7,-1,9,11,13,15,17,19,21,23,-1,-1,-1,-1,-1,-1,-1,-1,-1,-1,-1,-1],"loss_changes":[1.5250658E2,5.7161278E1,7.448459E1,4.6156494E1,0E0,3.3911476E1,2.7168015E1,1.2801346E1,2.635385E1,1.7506487E1,1.6497799E1,1.7239788E1,6.84935E0,0E0,0E0,0E0,0E0,0E0,0E0,0E0,0E0,0E0,0E0,0E0,0E0],"parents":[2147483647,0,0,1,1,2,2,3,3,5,5,6,6,7,7,8,8,9,9,10,10,11,11,12,12],"right_children":[2,4,6,8,-1,10,12,14,16,18,20,22,24,-1,-1,-1,-1,-1,-1,-1,-1,-1,-1,-1,-1],"split_conditions":[1E0,7.8125E-1,1E0,1E0,2.0099191E-1,1E0,1E0,1E0,1E0,4.375E-1,1E0,1E0,3.90625E-1,-1.2948483E-1,-6.702192E-2,-5.968916E-2,3.250393E-2,-1.6188295E-1,-2.0962466E-2,4.07424E-3,1.1121106E-1,7.33208E-3,1.16109245E-1,-1.876658E-1,1.6448966E-1],"split_indices":[7,0,1,9,0,4,8,3,4,0,9,9,0,0,0,0,0,0,0,0,0,0,0,0,0],"split_type":[0,0,0,0,0,0,0,0,0,0,0,0,0,0,0,0,0,0,0,0,0,0,0,0,0],"sum_hessian":[2.0540251E3,1.0632864E3,9.907388E2,1.0285432E3,3.474314E1,5.1005606E2,4.8068268E2,5.320759E2,4.9646732E2,2.7819476E2,2.318613E2,2.3531729E2,2.453654E2,2.8301962E2,2.4905632E2,2.5850473E2,2.379626E2,4.146023E1,2.3673454E2,1.07922104E2,1.23939186E2,1.0870766E2,1.2660963E2,2.0978506E0,2.4326755E2],"tree_param":{"num_deleted":"0","num_feature":"10","num_nodes":"25","size_leaf_vector":"1"}},{"base_weights":[1.0336828E-2,-2.0192975E-1,2.4850929E-1,-8.4609926E-1,-1.3516076E-1,3.050216E-2,5.0797546E-1,-1.0392263E0,-5.6368715E-1,-3.3198878E-1,5.6587912E-2,-1.8541189E-1,2.7813312E-1,2.957137E-1,7.3215175E-1,-2.205131E-1,-1.8867113E-1,-2.030444E-1,-1.0992997E-2,-7.147371E-2,1.9694053E-1,-2.8747244E-2,5.806532E-2,-8.869239E-2,9.205818E-3,1.8041077E-3,1.1496525E-1,-3.3740182E-3,1.1471806E-1,-1.8872176E-1,1.5008254E-1],"categories":[],"categories_nodes":[],"categories_segments":[],"categories_sizes":[],"default_left":[0,0,0,0,0,0,0,0,0,0,0,0,0,0,0,0,0,0,0,0,0,0,0,0,0,0,0,0,0,0,0],"id":31,"left_children":[1,3,5,7,9,11,13,15,17,19,21,23,25,27,29,-1,-1,-1,-1,-1,-1,-1,-1,-1,-1,-1,-1,-1,-1,-1,-1],"loss_changes":[1.0015289E2,4.4931606E1,5.2761093E1,5.1366043E0,3.5850685E1,2.7160429E1,2.0151527E1,4.3502808E-2,9.146012E0,1.5632809E1,2.2521828E1,1.6231073E1,1.8843622E1,1.9102123E1,6.3840714E0,0E0,0E0,0E0,0E0,0E0,0E0,0E0,0E0,0E0,0E0,0E0,0E0,0E0,0E0,0E0,0E0],"parents":[2147483647,0,0,1,1,2,2,3,3,4,4,5,5,6,6,7,7,8,8,9,9,10,10,11,11,12,12,13,13,14,14],"right_children":[2,4,6,8,10,12,14,16,18,20,22,24,26,28,30,-1,-1,-1,-1,-1,-1,-1,-1,-1,-1,-1,-1,-1,-1,-1,-1],"split_conditions":[1E0,4.0625E-1,1E0,1E0,1E0,1E0,1E0,1E0,3.90625E-1,7.8125E-1,1E0,1E0,1E0,1E0,3.90625E-1,-2.205131E-1,-1.8867113E-1,-2.030444E-1,-1.0992997E-2,-7.147371E-2,1.9694053E-1,-2.8747244E-2,5.806532E-2,-8.869239E-2,9.205818E-3,1.8041077E-3,1.1496525E-1,-3.3740182E-3,1.1471806E-1,-1.8872176E-1,1.5008254E-1],"split_indices":[1,0,6,8,9,8,2,9,0,0,2,9,3,8,0,0,0,0,0,0,0,0,0,0,0,0,0,0,0,0,0],"split_type":[0,0,0,0,0,0,0,0,0,0,0,0,0,0,0,0,0,0,0,0,0,0,0,0,0,0,0,0,0,0,0],"sum_hessian":[1.9807354E3,1.0471122E3,9.336231E2,9.8091034E1,9.490212E2,5.0761502E2,4.260081E2,5.7884644E1,4.0206394E1,4.685292E2,4.8049197E2,2.7097134E2,2.3664366E2,2.1916716E2,2.0684091E2,3.359572E1,2.4288925E1,2.1143545E1,1.906285E1,4.5981488E2,8.714322E0,2.585307E2,2.2196129E2,1.2828156E2,1.4268979E2,1.24320274E2,1.1232339E2,1.0301711E2,1.1615005E2,2.1160119E0,2.047249E2],"tree_param":{"num_deleted":"0","num_feature":"10","num_nodes":"31","size_leaf_vector":"1"}},{"base_weights":[6.333618E-3,-1.8657331E-1,2.3103999E-1,-2.1638493E-1,2.0097105E-1,1.7770873E-2,4.8901635E-1,-3.964602E-1,-1.860657E-2,-2.4062069E-1,2.624325E-1,2.8268382E-1,7.1201205E-1,-1.9535984E-1,-6.798013E-2,-4.008067E-2,4.208826E-2,-1.0520319E-1,8.983542E-3,-1.3582914E-2,1.23936534E-1,8.926707E-3,1.1259531E-1,1.0880389E-1,1.7834549E-1],"categories":[],"categories_nodes":[],"categories_segments":[],"categories_sizes":[],"default_left":[0,0,0,0,0,0,0,0,0,0,0,0,0,0,0,0,0,0,0,0,0,0,0,0,0],"id":32,"left_children":[1,3,5,7,-1,9,11,13,15,17,19,21,23,-1,-1,-1,-1,-1,-1,-1,-1,-1,-1,-1,-1],"loss_changes":[8.3536194E1,3.6762882E1,4.8936043E1,3.598245E1,0E0,3.0842966E1,1.8411034E1,1.7204704E1,2.0091509E1,1.9369583E1,2.965497E1,1.3921024E1,5.6424713E0,0E0,0E0,0E0,0E0,0E0,0E0,0E0,0E0,0E0,0E0,0E0,0E0],"parents":[2147483647,0,0,1,1,2,2,3,3,5,5,6,6,7,7,8,8,9,9,10,10,11,11,12,12],"right_children":[2,4,6,8,-1,10,12,14,16,18,20,22,24,-1,-1,-1,-1,-1,-1,-1,-1,-1,-1,-1,-1],"split_conditions":[1E0,7.8125E-1,1E0,1E0,2.0097105E-1,1E0,1E0,4.0625E-1,1E0,1E0,1E0,1E0,1E0,-1.9535984E-1,-6.798013E-2,-4.008067E-2,4.208826E-2,-1.0520319E-1,8.983542E-3,-1.3582914E-2,1.23936534E-1,8.926707E-3,1.1259531E-1,1.0880389E-1,1.7834549E-1],"split_indices":[5,0,1,2,0,8,2,0,6,3,7,6,3,0,0,0,0,0,0,0,0,0,0,0,0],"split_type":[0,0,0,0,0,0,0,0,0,0,0,0,0,0,0,0,0,0,0,0,0,0,0,0,0],"sum_hessian":[1.9268303E3,1.0365447E3,8.9028564E2,1.01140344E3,2.5141308E1,4.876444E2,4.026412E2,5.2907745E2,4.8232596E2,2.3696954E2,2.5067488E2,2.0948499E2,1.9315622E2,4.6683067E1,4.8239438E2,2.691494E2,2.1317654E2,1.186475E2,1.1832204E2,1.3013808E2,1.2053681E2,1.135341E2,9.595088E1,1.0032994E2,9.282627E1],"tree_param":{"num_deleted":"0","num_feature":"10","num_nodes":"25","size_leaf_vector":"1"}},{"base_weights":[1.57032E-2,-1.7748828E-1,2.3414223E-1,-3.5384184E-1,2.3927694E-2,2.2168633E-2,4.8477674E-1,-4.033861E-1,3.8210794E-1,-2.1230187E-1,2.95394E-1,-1.6764398E-1,2.4673495E-1,2.7712998E-1,7.048738E-1,-1.1754662E-1,-4.1725636E-2,3.006118E-2,1.9798993E-1,-8.6652584E-2,1.0842341E-2,1.4459396E-2,1.1098105E-1,-8.402008E-2,1.5171535E-2,1.0924585E-2,9.8327905E-2,1.14569E-2,1.0805016E-1,1.03365734E-1,1.7971109E-1],"categories":[],"categories_nodes":[],"categories_segments":[],"categories_sizes":[],"default_left":[0,0,0,0,0,0,0,0,0,0,0,0,0,0,0,0,0,0,0,0,0,0,0,0,0,0,0,0,0,0,0],"id":33,"left_children":[1,3,5,7,9,11,13,15,17,19,21,23,25,27,29,-1,-1,-1,-1,-1,-1,-1,-1,-1,-1,-1,-1,-1,-1,-1,-1],"loss_changes":[7.774749E1,3.474997E1,4.5895535E1,1.9027786E1,2.9262697E1,1.999833E1,1.7983284E1,1.745253E1,4.49384E0,1.4393422E1,1.2233597E1,1.5647034E1,1.006106E1,1.1748934E1,6.8036804E0,0E0,0E0,0E0,0E0,0E0,0E0,0E0,0E0,0E0,0E0,0E0,0E0,0E0,0E0,0E0,0E0],"parents":[2147483647,0,0,1,1,2,2,3,3,4,4,5,5,6,6,7,7,8,8,9,9,10,10,11,11,12,12,13,13,14,14],"right_children":[2,4,6,8,10,12,14,16,18,20,22,24,26,28,30,-1,-1,-1,-1,-1,-1,-1,-1,-1,-1,-1,-1,-1,-1,-1,-1],"split_conditions":[1E0,1E0,1E0,7.65625E-1,1E0,1E0,1E0,1E0,7.8125E-1,1E0,1E0,1E0,1E0,1E0,1E0,-1.1754662E-1,-4.1725636E-2,3.006118E-2,1.9798993E-1,-8.6652584E-2,1.0842341E-2,1.4459396E-2,1.1098105E-1,-8.402008E-2,1.5171535E-2,1.0924585E-2,9.8327905E-2,1.14569E-2,1.0805016E-1,1.03365734E-1,1.7971109E-1],"split_indices":[7,3,4,0,9,1,5,4,0,1,5,3,2,1,3,0,0,0,0,0,0,0,0,0,0,0,0,0,0,0,0],"split_type":[0,0,0,0,0,0,0,0,0,0,0,0,0,0,0,0,0,0,0,0,0,0,0,0,0,0,0,0,0,0,0],"sum_hessian":[1.8420004E3,9.7725714E2,8.647432E2,5.212701E2,4.5598703E2,4.6878073E2,3.9596246E2,4.8856116E2,3.270895E1,2.4363216E2,2.1235489E2,2.5382095E2,2.1495978E2,2.040939E2,1.9186858E2,2.5062157E2,2.3793959E2,2.3888319E1,8.820629E0,1.3337022E2,1.10261925E2,1.14464806E2,9.789008E1,1.2478507E2,1.2903589E2,1.2076106E2,9.419872E1,1.1146407E2,9.262982E1,9.7798904E1,9.406967E1],"tree_param":{"num_deleted":"0","num_feature":"10","num_nodes":"31","size_leaf_vector":"1"}},{"base_weights":[3.766068E-2,-2.0275839E-1,7.620027E-2,-1.080693E-1,2.8439957E-1,-1.430604E-1,2.0052746E-1,9.30275E-2,5.0232494E-1,-1.647649E-2,-1.447068E-1,-2.426775E-2,6.3974984E-2,6.0542E-2,1.4808276E-1],"categories":[],"categories_nodes":[],"categories_segments":[],"categories_sizes":[],"default_left":[0,0,0,0,0,0,0,0,0,0,0,0,0,0,0],"id":34,"left_children":[1,-1,3,5,7,9,-1,11,13,-1,-1,-1,-1,-1,-1],"loss_changes":[7.278634E1,0E0,6.658044E1,3.5690544E1,3.391897E1,3.1339838E1,0E0,2.1139357E1,1.7967697E1,0E0,0E0,0E0,0E0,0E0,0E0],"parents":[2147483647,0,0,2,2,3,3,4,4,5,5,7,7,8,8],"right_children":[2,-1,4,6,8,10,-1,12,14,-1,-1,-1,-1,-1,-1],"split_conditions":[3.90625E-1,-2.0275839E-1,1E0,7.8125E-1,1E0,7.34375E-1,2.0052746E-1,1E0,1E0,-1.647649E-2,-1.447068E-1,-2.426775E-2,6.3974984E-2,6.0542E-2,1.4808276E-1],"split_indices":[0,0,2,0,8,0,0,1,7,0,0,0,0,0,0],"split_type":[0,0,0,0,0,0,0,0,0,0,0,0,0,0,0],"sum_hessian":[1.7982164E3,6.3399536E1,1.7348169E3,9.20067E2,8.147499E2,8.9213873E2,2.7928308E1,4.3412384E2,3.8062604E2,8.079669E2,8.417179E1,2.2299948E2,2.1112436E2,2.0739345E2,1.732326E2],"tree_param":{"num_deleted":"0","num_feature":"10","num_nodes":"15","size_leaf_vector":"1"}},{"base_weights":[-5.9334454E-3,-1.6227376E-1,1.7805648E-1,-3.2906598E-1,1.7921384E-2,4.6784473E-3,3.874317E-1,-4.7955942E-1,-1.8103932E-1,-1.8089835E-1,2.5403377E-1,-1.7675366E-1,1.982494E-1,1.531948E-1,6.6642946E-1,-1.3565224E-1,-6.4367585E-2,-7.110684E-2,4.606025E-3,-7.5218484E-2,5.3072064E-3,7.6488743E-4,1.06911436E-1,-9.29116E-2,1.9367961E-2,1.2815326E-2,7.429305E-2,-6.3603073E-3,7.7722006E-2,1.00100875E-1,1.7427205E-1],"categories":[],"categories_nodes":[],"categories_segments":[],"categories_sizes":[],"default_left":[0,0,0,0,0,0,0,0,0,0,0,0,0,0,0,0,0,0,0,0,0,0,0,0,0,0,0,0,0,0,0],"id":35,"left_children":[1,3,5,7,9,11,13,15,17,19,21,23,25,27,29,-1,-1,-1,-1,-1,-1,-1,-1,-1,-1,-1,-1,-1,-1,-1,-1],"loss_changes":[4.9515755E1,2.801126E1,2.8656612E1,1.0701618E1,2.1009747E1,1.5205063E1,2.3291618E1,7.3832703E0,8.735707E0,9.860988E0,1.4316835E1,1.7615047E1,4.827712E0,8.522182E0,5.3644257E0,0E0,0E0,0E0,0E0,0E0,0E0,0E0,0E0,0E0,0E0,0E0,0E0,0E0,0E0,0E0,0E0],"parents":[2147483647,0,0,1,1,2,2,3,3,4,4,5,5,6,6,7,7,8,8,9,9,10,10,11,11,12,12,13,13,14,14],"right_children":[2,4,6,8,10,12,14,16,18,20,22,24,26,28,30,-1,-1,-1,-1,-1,-1,-1,-1,-1,-1,-1,-1,-1,-1,-1,-1],"split_conditions":[1E0,1E0,1E0,1E0,1E0,1E0,1E0,1E0,1E0,1E0,1E0,1E0,1E0,1E0,1E0,-1.3565224E-1,-6.4367585E-2,-7.110684E-2,4.606025E-3,-7.5218484E-2,5.3072064E-3,7.6488743E-4,1.06911436E-1,-9.29116E-2,1.9367961E-2,1.2815326E-2,7.429305E-2,-6.3603073E-3,7.7722006E-2,1.00100875E-1,1.7427205E-1],"split_indices":[6,7,3,2,8,8,7,8,9,5,1,9,5,2,5,0,0,0,0,0,0,0,0,0,0,0,0,0,0,0,0],"split_type":[0,0,0,0,0,0,0,0,0,0,0,0,0,0,0,0,0,0,0,0,0,0,0,0,0,0,0,0,0,0,0],"sum_hessian":[1.7212407E3,9.308404E2,7.904004E2,4.8364304E2,4.4719733E2,4.326852E2,3.5771518E2,2.3937723E2,2.4426581E2,2.4255359E2,2.0464374E2,2.2308344E2,2.0960176E2,1.9473538E2,1.629798E2,1.0550062E2,1.3387662E2,1.3189844E2,1.1236737E2,1.2517021E2,1.1738337E2,1.08408226E2,9.623551E1,1.0886232E2,1.14221115E2,1.18514725E2,9.108704E1,1.0885532E2,8.5880066E1,9.052067E1,7.245914E1],"tree_param":{"num_deleted":"0","num_feature":"10","num_nodes":"31","size_leaf_vector":"1"}},{"base_weights":[3.0488513E-2,-1.4054699E-1,2.2471108E-1,-2.0101748E-1,-1.0794314E-1,3.5258655E-2,4.5972434E-1,-2.6924866E-1,6.68503E-2,-1.5772742E-1,2.6858303E-1,-1.9891194E-1,4.8555675E-1,-8.5350566E-2,-2.1067174E-2,-2.2352567E-2,5.6955066E-2,-9.900334E-2,5.9264526E-4,-1.9467688E-1,5.887062E-2,6.601252E-2,1.3277291E-1],"categories":[],"categories_nodes":[],"categories_segments":[],"categories_sizes":[],"default_left":[0,0,0,0,0,0,0,0,0,0,0,0,0,0,0,0,0,0,0,0,0,0,0],"id":36,"left_children":[1,3,5,-1,7,9,11,13,15,17,19,-1,21,-1,-1,-1,-1,-1,-1,-1,-1,-1,-1],"loss_changes":[5.6515247E1,2.536626E1,3.5425312E1,0E0,2.459726E1,1.9895565E1,1.3348633E1,1.1653183E1,1.629469E1,1.313678E1,6.3662195E0,0E0,9.563972E0,0E0,0E0,0E0,0E0,0E0,0E0,0E0,0E0,0E0,0E0],"parents":[2147483647,0,0,1,1,2,2,4,4,5,5,6,6,7,7,8,8,9,9,10,10,12,12],"right_children":[2,4,6,-1,8,10,12,14,16,18,20,-1,22,-1,-1,-1,-1,-1,-1,-1,-1,-1,-1],"split_conditions":[1E0,3.90625E-1,1E0,-2.0101748E-1,1E0,1E0,3.90625E-1,1E0,1E0,5.15625E-1,3.90625E-1,-1.9891194E-1,1E0,-8.5350566E-2,-2.1067174E-2,-2.2352567E-2,5.6955066E-2,-9.900334E-2,5.9264526E-4,-1.9467688E-1,5.887062E-2,6.601252E-2,1.3277291E-1],"split_indices":[4,0,5,0,3,3,0,2,6,0,0,0,2,0,0,0,0,0,0,0,0,0,0],"split_type":[0,0,0,0,0,0,0,0,0,0,0,0,0,0,0,0,0,0,0,0,0,0,0],"sum_hessian":[1.7008468E3,9.041503E2,7.966965E2,3.26386E1,8.715117E2,4.41405E2,3.552915E2,4.5351254E2,4.179992E2,2.4136894E2,2.0003604E2,6.0678787E0,3.4922363E2,2.3088458E2,2.2262794E2,2.2949394E2,1.8850526E2,7.801981E1,1.6334914E2,3.9126253E0,1.9612341E2,1.8699747E2,1.6222617E2],"tree_param":{"num_deleted":"0","num_feature":"10","num_nodes":"23","size_leaf_vector":"1"}},{"base_weights":[4.1367564E-2,-2.0143028E-1,6.8585075E-2,3.918046E-2,2.0026529E-1,-1.02313936E-1,1.8672875E-1,-5.1205583E-2,1.1799858E-2,7.573455E-3,7.4406974E-2],"categories":[],"categories_nodes":[],"categories_segments":[],"categories_sizes":[],"default_left":[0,0,0,0,0,0,0,0,0,0,0],"id":37,"left_children":[1,-1,3,5,-1,7,9,-1,-1,-1,-1],"loss_changes":[4.7660473E1,0E0,4.4624413E1,3.30242E1,0E0,2.003028E1,2.1321774E1,0E0,0E0,0E0,0E0],"parents":[2147483647,0,0,2,2,3,3,5,5,6,6],"right_children":[2,-1,4,6,-1,8,10,-1,-1,-1,-1],"split_conditions":[3.90625E-1,-2.0143028E-1,7.8125E-1,1E0,2.0026529E-1,1E0,1E0,-5.1205583E-2,1.1799858E-2,7.573455E-3,7.4406974E-2],"split_indices":[0,0,0,9,0,2,5,0,0,0,0],"split_type":[0,0,0,0,0,0,0,0,0,0,0],"sum_hessian":[1.673013E3,4.2145317E1,1.6308677E3,1.5812308E3,4.9636787E1,8.0684424E2,7.743866E2,4.1344107E2,3.934032E2,4.2978702E2,3.4459958E2],"tree_param":{"num_deleted":"0","num_feature":"10","num_nodes":"11","size_leaf_vector":"1"}},{"base_weights":[2.5613362E-2,-1.1733106E-1,1.9496985E-1,-2.6316285E-1,4.4896282E-2,3.971097E-2,4.0116802E-1,-4.4531947E-1,-8.256567E-2,-1.08436026E-1,2.4686688E-1,-1.06860325E-1,2.330513E-1,2.0876755E-1,5.740705E-1,-1.3158664E-1,-5.5350125E-2,-5.8258034E-2,2.7309645E-2,-6.0128894E-2,2.3594825E-2,1.0487367E-2,1.0705253E-1,-6.91556E-2,2.1861084E-2,4.1992064E-3,9.460081E-2,-1.4444782E-2,9.8383084E-2,9.266222E-2,1.4601715E-1],"categories":[],"categories_nodes":[],"categories_segments":[],"categories_sizes":[],"default_left":[0,0,0,0,0,0,0,0,0,0,0,0,0,0,0,0,0,0,0,0,0,0,0,0,0,0,0,0,0,0,0],"id":38,"left_children":[1,3,5,7,9,11,13,15,17,19,21,23,25,27,29,-1,-1,-1,-1,-1,-1,-1,-1,-1,-1,-1,-1,-1,-1,-1,-1],"loss_changes":[3.9483295E1,2.09358E1,2.3858683E1,1.5268444E1,1.296824E1,1.2096876E1,1.05696335E1,8.189705E0,1.0736061E1,1.0358371E1,1.00762005E1,1.2539993E1,9.32059E0,1.2146834E1,2.7575111E0,0E0,0E0,0E0,0E0,0E0,0E0,0E0,0E0,0E0,0E0,0E0,0E0,0E0,0E0,0E0,0E0],"parents":[2147483647,0,0,1,1,2,2,3,3,4,4,5,5,6,6,7,7,8,8,9,9,10,10,11,11,12,12,13,13,14,14],"right_children":[2,4,6,8,10,12,14,16,18,20,22,24,26,28,30,-1,-1,-1,-1,-1,-1,-1,-1,-1,-1,-1,-1,-1,-1,-1,-1],"split_conditions":[1E0,1E0,1E0,1E0,1E0,1E0,1E0,1E0,1E0,1E0,1E0,1E0,1E0,1E0,1E0,-1.3158664E-1,-5.5350125E-2,-5.8258034E-2,2.7309645E-2,-6.0128894E-2,2.3594825E-2,1.0487367E-2,1.0705253E-1,-6.91556E-2,2.1861084E-2,4.1992064E-3,9.460081E-2,-1.4444782E-2,9.8383084E-2,9.266222E-2,1.4601715E-1],"split_indices":[4,6,7,1,5,5,9,7,8,2,7,8,2,2,6,0,0,0,0,0,0,0,0,0,0,0,0,0,0,0,0],"split_type":[0,0,0,0,0,0,0,0,0,0,0,0,0,0,0,0,0,0,0,0,0,0,0,0,0,0,0,0,0,0,0],"sum_hessian":[1.6304487E3,8.838664E2,7.4658234E2,4.6574564E2,4.1812076E2,4.2624292E2,3.2033942E2,2.3152309E2,2.3422253E2,2.3742404E2,1.806967E2,2.4217647E2,1.8406645E2,1.519989E2,1.6834053E2,1.0199481E2,1.2952827E2,1.20172E2,1.1405054E2,1.286321E2,1.0879194E2,1.08209305E2,7.2487404E1,1.1522566E2,1.269508E2,9.7992386E1,8.6074066E1,7.615008E1,7.584882E1,9.905598E1,6.928455E1],"tree_param":{"num_deleted":"0","num_feature":"10","num_nodes":"31","size_leaf_vector":"1"}},{"base_weights":[1.2304124E-2,-1.307888E-1,1.8851918E-1,-2.739949E-1,2.941037E-2,4.7417212E-2,3.819799E-1,-4.435653E-1,-1.0290195E-1,-1.4100602E-1,2.3881039E-1,-1.297493E-1,2.292929E-1,3.2140508E-1,9.104754E-1,-9.967561E-2,1.3658464E-1,-9.224254E-3,-1.8090458E-1,-6.4509176E-2,1.9600995E-2,-5.2540805E-2,6.983167E-2,-3.1170664E-2,1.9296393E-1,6.3931914E-3,9.6888155E-2,3.126938E-2,1.10283494E-1,2.2436802E-1,1.4236605E-1],"categories":[],"categories_nodes":[],"categories_segments":[],"categories_sizes":[],"default_left":[0,0,0,0,0,0,0,0,0,0,0,0,0,0,0,0,0,0,0,0,0,0,0,0,0,0,0,0,0,0,0],"id":39,"left_children":[1,3,5,7,9,11,13,15,17,19,21,23,25,27,29,-1,-1,-1,-1,-1,-1,-1,-1,-1,-1,-1,-1,-1,-1,-1,-1],"loss_changes":[3.9389347E1,1.9792858E1,1.9070534E1,1.31499405E1,1.4517652E1,1.3073715E1,9.292141E0,1.4114708E1,1.0235477E1,9.740083E0,1.0126972E1,5.794688E0,1.0032605E1,9.98167E0,1.001112E0,0E0,0E0,0E0,0E0,0E0,0E0,0E0,0E0,0E0,0E0,0E0,0E0,0E0,0E0,0E0,0E0],"parents":[2147483647,0,0,1,1,2,2,3,3,4,4,5,5,6,6,7,7,8,8,9,9,10,10,11,11,12,12,13,13,14,14],"right_children":[2,4,6,8,10,12,14,16,18,20,22,24,26,28,30,-1,-1,-1,-1,-1,-1,-1,-1,-1,-1,-1,-1,-1,-1,-1,-1],"split_conditions":[1E0,1E0,1E0,1E0,1E0,1E0,7.65625E-1,7.65625E-1,7.5E-1,1E0,4.6875E-1,7.8125E-1,1E0,1E0,1E0,-9.967561E-2,1.3658464E-1,-9.224254E-3,-1.8090458E-1,-6.4509176E-2,1.9600995E-2,-5.2540805E-2,6.983167E-2,-3.1170664E-2,1.9296393E-1,6.3931914E-3,9.6888155E-2,3.126938E-2,1.10283494E-1,2.2436802E-1,1.4236605E-1],"split_indices":[5,8,1,3,1,3,0,0,0,2,0,0,6,3,8,0,0,0,0,0,0,0,0,0,0,0,0,0,0,0,0],"split_type":[0,0,0,0,0,0,0,0,0,0,0,0,0,0,0,0,0,0,0,0,0,0,0,0,0,0,0,0,0,0,0],"sum_hessian":[1.561705E3,8.615521E2,7.0015283E2,4.5519495E2,4.0635715E2,4.0523398E2,2.9491885E2,2.2824117E2,2.269538E2,2.2378716E2,1.8256999E2,2.050105E2,2.0022346E2,2.6490604E2,3.0012829E1,2.1778853E2,1.0452632E1,2.1215674E2,1.4797056E1,1.2740252E2,9.6384636E1,3.273774E1,1.4983226E2,2.0040814E2,4.602346E0,1.1318929E2,8.703418E1,1.5458073E2,1.103253E2,1.4071812E1,1.5941016E1],"tree_param":{"num_deleted":"0","num_feature":"10","num_nodes":"31","size_leaf_vector":"1"}},{"base_weights":[-8.918489E-3,-3.2810867E-2,1.997774E-1,-1.6499971E-1,1.2856008E-1,-2.0012379E-1,-1.4104725E-1,-2.8774008E-2,2.977723E-1,-5.2577313E-2,-5.2587286E-4,-3.6156368E-2,2.8761625E-2,3.525513E-2,9.4209455E-2],"categories":[],"categories_nodes":[],"categories_segments":[],"categories_sizes":[],"default_left":[0,0,0,0,0,0,0,0,0,0,0,0,0,0,0],"id":40,"left_children":[1,3,-1,5,7,-1,9,11,13,-1,-1,-1,-1,-1,-1],"loss_changes":[3.714499E1,3.2235306E1,0E0,1.6502865E1,1.813303E1,0E0,1.3600208E1,9.245492E0,6.831686E0,0E0,0E0,0E0,0E0,0E0,0E0],"parents":[2147483647,0,0,1,1,3,3,4,4,6,6,7,7,8,8],"right_children":[2,4,-1,6,8,-1,10,12,14,-1,-1,-1,-1,-1,-1],"split_conditions":[7.8125E-1,1E0,1.997774E-1,3.90625E-1,1E0,-2.0012379E-1,1E0,1E0,1E0,-5.2577313E-2,-5.2587286E-4,-3.6156368E-2,2.8761625E-2,3.525513E-2,9.4209455E-2],"split_indices":[0,1,0,0,9,0,7,2,2,0,0,0,0,0,0],"split_type":[0,0,0,0,0,0,0,0,0,0,0,0,0,0,0],"sum_hessian":[1.5464147E3,1.5107938E3,3.562092E1,8.308286E2,6.799652E2,2.2921553E1,8.0790704E2,3.5208624E2,3.2787897E2,4.292536E2,3.786534E2,1.8750726E2,1.6457898E2,1.9319423E2,1.3468474E2],"tree_param":{"num_deleted":"0","num_feature":"10","num_nodes":"15","size_leaf_vector":"1"}},{"base_weights":[-2.345646E-3,-1.4705896E-1,1.6699366E-1,-2.8565407E-1,6.8246713E-3,-1.0404066E-2,3.6479962E-1,-4.294896E-1,-1.529381E-1,-1.8162559E-1,2.2418353E-1,-1.7739028E-1,2.0380494E-1,2.1136536E-1,5.6894636E-1,-9.9576704E-2,-7.317787E-2,-7.231098E-2,1.1733616E-2,-8.287599E-2,1.1967563E-3,6.8559977E-3,9.391158E-2,-6.33533E-2,-3.5402316E-3,3.9725786E-5,1.0300926E-1,3.1030062E-3,9.1724165E-2,8.6387195E-2,1.5066567E-1],"categories":[],"categories_nodes":[],"categories_segments":[],"categories_sizes":[],"default_left":[0,0,0,0,0,0,0,0,0,0,0,0,0,0,0,0,0,0,0,0,0,0,0,0,0,0,0,0,0,0,0],"id":41,"left_children":[1,3,5,7,9,11,13,15,17,19,21,23,25,27,29,-1,-1,-1,-1,-1,-1,-1,-1,-1,-1,-1,-1,-1,-1,-1,-1],"loss_changes":[3.7012093E1,1.7404715E1,2.4447395E1,8.1247635E0,1.5812736E1,1.3113868E1,1.0221153E1,7.8915787E-1,9.905311E0,9.057009E0,8.310707E0,4.5579705E0,1.011137E1,9.0739975E0,3.4087067E0,0E0,0E0,0E0,0E0,0E0,0E0,0E0,0E0,0E0,0E0,0E0,0E0,0E0,0E0,0E0,0E0],"parents":[2147483647,0,0,1,1,2,2,3,3,4,4,5,5,6,6,7,7,8,8,9,9,10,10,11,11,12,12,13,13,14,14],"right_children":[2,4,6,8,10,12,14,16,18,20,22,24,26,28,30,-1,-1,-1,-1,-1,-1,-1,-1,-1,-1,-1,-1,-1,-1,-1,-1],"split_conditions":[1E0,1E0,1E0,1E0,1E0,1E0,1E0,1E0,1E0,1E0,1E0,1E0,1E0,1E0,1E0,-9.9576704E-2,-7.317787E-2,-7.231098E-2,1.1733616E-2,-8.287599E-2,1.1967563E-3,6.8559977E-3,9.391158E-2,-6.33533E-2,-3.5402316E-3,3.9725786E-5,1.0300926E-1,3.1030062E-3,9.1724165E-2,8.6387195E-2,1.5066567E-1],"split_indices":[6,4,8,1,3,4,5,5,8,9,7,1,1,7,3,0,0,0,0,0,0,0,0,0,0,0,0,0,0,0,0],"split_type":[0,0,0,0,0,0,0,0,0,0,0,0,0,0,0,0,0,0,0,0,0,0,0,0,0,0,0,0,0,0,0],"sum_hessian":[1.5102302E3,8.146519E2,6.955783E2,4.2891464E2,3.8573724E2,3.6648965E2,3.2908865E2,2.0536552E2,2.2354913E2,2.0637038E2,1.7936688E2,2.0621733E2,1.6027231E2,1.8827603E2,1.4081262E2,9.786701E1,1.0749851E2,1.12771996E2,1.1077713E2,9.228755E1,1.14082825E2,1.0140648E2,7.7960396E1,1.09725044E2,9.6492294E1,9.7144295E1,6.3128006E1,1.0534404E2,8.2931984E1,8.1286736E1,5.9525887E1],"tree_param":{"num_deleted":"0","num_feature":"10","num_nodes":"31","size_leaf_vector":"1"}},{"base_weights":[-1.8616403E-2,-1.7584878E-1,1.6821983E-1,-3.4483194E-1,9.541885E-4,3.4435246E-2,3.5023376E-1,-5.3203547E-1,-1.718107E-1,-1.7135084E-1,2.207078E-1,-1.1556621E-1,2.1576479E-1,1.9225374E-1,5.478621E-1,-1.5575294E-1,-6.359141E-2,-6.716352E-2,-1.445291E-3,-1.014326E-1,2.5882749E-2,-2.6809867E-3,9.934524E-2,-5.871288E-2,1.3693206E-2,8.184977E-3,8.60711E-2,6.3764416E-3,9.2021756E-2,8.371512E-2,1.538322E-1],"categories":[],"categories_nodes":[],"categories_segments":[],"categories_sizes":[],"default_left":[0,0,0,0,0,0,0,0,0,0,0,0,0,0,0,0,0,0,0,0,0,0,0,0,0,0,0,0,0,0,0],"id":42,"left_children":[1,3,5,7,9,11,13,15,17,19,21,23,25,27,29,-1,-1,-1,-1,-1,-1,-1,-1,-1,-1,-1,-1,-1,-1,-1,-1],"loss_changes":[4.2655693E1,2.3599669E1,1.6110857E1,1.29925995E1,1.4596706E1,1.0421782E1,8.677734E0,1.008725E1,5.638328E0,2.1834955E1,1.1009666E1,6.8775253E0,6.464156E0,6.6679554E0,3.4066467E0,0E0,0E0,0E0,0E0,0E0,0E0,0E0,0E0,0E0,0E0,0E0,0E0,0E0,0E0,0E0,0E0],"parents":[2147483647,0,0,1,1,2,2,3,3,4,4,5,5,6,6,7,7,8,8,9,9,10,10,11,11,12,12,13,13,14,14],"right_children":[2,4,6,8,10,12,14,16,18,20,22,24,26,28,30,-1,-1,-1,-1,-1,-1,-1,-1,-1,-1,-1,-1,-1,-1,-1,-1],"split_conditions":[1E0,1E0,1E0,1E0,1E0,1E0,1E0,1E0,1E0,1E0,1E0,1E0,1E0,1E0,1E0,-1.5575294E-1,-6.359141E-2,-6.716352E-2,-1.445291E-3,-1.014326E-1,2.5882749E-2,-2.6809867E-3,9.934524E-2,-5.871288E-2,1.3693206E-2,8.184977E-3,8.60711E-2,6.3764416E-3,9.2021756E-2,8.371512E-2,1.538322E-1],"split_indices":[7,4,5,1,6,1,8,9,6,2,8,9,8,6,2,0,0,0,0,0,0,0,0,0,0,0,0,0,0,0,0],"split_type":[0,0,0,0,0,0,0,0,0,0,0,0,0,0,0,0,0,0,0,0,0,0,0,0,0,0,0,0,0,0,0],"sum_hessian":[1.4517977E3,7.886495E2,6.631483E2,4.0348282E2,3.8516663E2,3.8259796E2,2.8055032E2,1.9342145E2,2.1006137E2,2.1564784E2,1.695188E2,2.0910477E2,1.7349321E2,1.5630591E2,1.2424442E2,8.951868E1,1.0390277E2,1.0485878E2,1.0520258E2,1.020122E2,1.1363564E2,9.157756E1,7.794123E1,1.0654095E2,1.0256381E2,9.5923584E1,7.756962E1,9.807262E1,5.8233295E1,7.889416E1,4.535027E1],"tree_param":{"num_deleted":"0","num_feature":"10","num_nodes":"31","size_leaf_vector":"1"}},{"base_weights":[2.1639872E-2,-2.005723E-1,4.1070957E-2,-8.645436E-2,1.9060473E-1,-1.03128344E-1,1.9775811E-1,6.492139E-2,3.7078375E-1,-4.838332E-2,4.676123E-3,-1.7214173E-2,4.7433767E-2,4.950685E-2,1.0736444E-1],"categories":[],"categories_nodes":[],"categories_segments":[],"categories_sizes":[],"default_left":[0,0,0,0,0,0,0,0,0,0,0,0,0,0,0],"id":43,"left_children":[1,-1,3,5,7,9,-1,11,13,-1,-1,-1,-1,-1,-1],"loss_changes":[2.8994919E1,0E0,2.7359901E1,1.3793565E1,1.4911253E1,1.3403312E1,0E0,1.014821E1,5.455265E0,0E0,0E0,0E0,0E0,0E0,0E0],"parents":[2147483647,0,0,2,2,3,3,4,4,5,5,7,7,8,8],"right_children":[2,-1,4,6,8,10,-1,12,14,-1,-1,-1,-1,-1,-1],"split_conditions":[3.90625E-1,-2.005723E-1,1E0,7.8125E-1,1E0,1E0,1.9775811E-1,1E0,1E0,-4.838332E-2,4.676123E-3,-1.7214173E-2,4.7433767E-2,4.950685E-2,1.0736444E-1],"split_indices":[0,0,2,0,5,8,0,4,3,0,0,0,0,0,0],"split_type":[0,0,0,0,0,0,0,0,0,0,0,0,0,0,0],"sum_hessian":[1.4610306E3,2.7004686E1,1.434026E3,7.736314E2,6.603946E2,7.619984E2,1.1633014E1,3.8943582E2,2.7095877E2,3.636981E2,3.9830035E2,2.0723921E2,1.821966E2,1.5600694E2,1.1495181E2],"tree_param":{"num_deleted":"0","num_feature":"10","num_nodes":"15","size_leaf_vector":"1"}},{"base_weights":[3.5127316E-2,-1.9987042E-1,5.1429275E-2,3.5313617E-2,1.989737E-1,-6.981861E-2,1.5967454E-1,-3.531743E-2,1.0174009E-2,7.856961E-3,6.4496614E-2],"categories":[],"categories_nodes":[],"categories_segments":[],"categories_sizes":[],"default_left":[0,0,0,0,0,0,0,0,0,0,0],"id":44,"left_children":[1,-1,3,5,-1,7,9,-1,-1,-1,-1],"loss_changes":[2.4277632E1,0E0,2.1524391E1,1.830127E1,0E0,9.77765E0,1.2533567E1,0E0,0E0,0E0,0E0],"parents":[2147483647,0,0,2,2,3,3,5,5,6,6],"right_children":[2,-1,4,6,-1,8,10,-1,-1,-1,-1],"split_conditions":[3.90625E-1,-1.9987042E-1,7.8125E-1,1E0,1.989737E-1,1E0,1E0,-3.531743E-2,1.0174009E-2,7.856961E-3,6.4496614E-2],"split_indices":[0,0,0,4,0,3,6,0,0,0,0],"split_type":[0,0,0,0,0,0,0,0,0,0,0],"sum_hessian":[1.4448256E3,2.2226492E1,1.422599E3,1.3989128E3,2.368624E1,7.5765027E2,6.412626E2,4.0242386E2,3.5522638E2,3.6908142E2,2.7218112E2],"tree_param":{"num_deleted":"0","num_feature":"10","num_nodes":"11","size_leaf_vector":"1"}},{"base_weights":[-2.1352347E-2,-3.584021E-2,1.9851276E-1,-1.4597388E-1,8.522581E-2,-2.726061E-1,-9.553112E-3,-3.8626354E-2,2.5575098E-1,-4.388879E-2,-1.2353479E-1,-2.879642E-2,3.1643867E-2,-3.8397323E-2,3.1336978E-2,2.5256371E-2,9.353136E-2],"categories":[],"categories_nodes":[],"categories_segments":[],"categories_sizes":[],"default_left":[0,0,0,0,0,0,0,0,0,0,0,0,0,0,0,0,0],"id":45,"left_children":[1,3,-1,5,7,9,11,13,15,-1,-1,-1,-1,-1,-1,-1,-1],"loss_changes":[2.045722E1,1.8399494E1,0E0,1.24577875E1,1.3892539E1,6.7719555E0,7.859105E0,1.13936825E1,7.524702E0,0E0,0E0,0E0,0E0,0E0,0E0,0E0,0E0],"parents":[2147483647,0,0,1,1,3,3,4,4,5,5,6,6,7,7,8,8],"right_children":[2,4,-1,6,8,10,12,14,16,-1,-1,-1,-1,-1,-1,-1,-1],"split_conditions":[7.8125E-1,1E0,1.9851276E-1,1E0,1E0,7.1875E-1,1E0,1E0,1E0,-4.388879E-2,-1.2353479E-1,-2.879642E-2,3.1643867E-2,-3.8397323E-2,3.1336978E-2,2.5256371E-2,9.353136E-2],"split_indices":[0,8,0,1,4,0,3,3,5,0,0,0,0,0,0,0,0],"split_type":[0,0,0,0,0,0,0,0,0,0,0,0,0,0,0,0,0],"sum_hessian":[1.3988153E3,1.3793016E3,1.951377E1,7.226829E2,6.5661865E2,3.743555E2,3.4832742E2,3.800673E2,2.7655136E2,3.2477335E2,4.9582153E1,1.9371887E2,1.5460854E2,2.1318562E2,1.6688167E2,1.7205911E2,1.0449226E2],"tree_param":{"num_deleted":"0","num_feature":"10","num_nodes":"17","size_leaf_vector":"1"}},{"base_weights":[2.6828176E-3,-1.252529E-1,1.5689906E-1,-1.606169E-1,4.6235E-1,4.9242184E-2,3.1199375E-1,-2.6963857E-1,-3.8435493E-2,7.553781E-1,1.5674382E-1,3.8698828E-1,-5.2763343E-2,1.600085E-1,5.0749093E-1,-1.5093824E-1,-4.309098E-2,-3.4993663E-2,2.4651812E-2,1.1942641E-1,1.7075443E-1,-7.0362906E-3,1.910331E-1,-1.933836E-1,9.354755E-2,-4.7691762E-2,3.6968675E-2,4.4932947E-2,-2.6655972E-2,-9.1429144E-2,1.1160429E-1],"categories":[],"categories_nodes":[],"categories_segments":[],"categories_sizes":[],"default_left":[0,0,0,0,0,0,0,0,0,0,0,0,0,0,0,0,0,0,0,0,0,0,0,0,0,0,0,0,0,0,0],"id":46,"left_children":[1,3,5,7,9,11,13,15,17,19,21,23,25,27,29,-1,-1,-1,-1,-1,-1,-1,-1,-1,-1,-1,-1,-1,-1,-1,-1],"loss_changes":[2.7117504E1,1.5578705E1,1.0372825E1,9.404436E0,3.7015781E0,1.2732047E1,7.503765E0,9.713934E0,7.393982E0,1.3862896E-1,3.32708E0,9.367298E0,1.2492273E1,2.74157E0,5.4572754E0,0E0,0E0,0E0,0E0,0E0,0E0,0E0,0E0,0E0,0E0,0E0,0E0,0E0,0E0,0E0,0E0],"parents":[2147483647,0,0,1,1,2,2,3,3,4,4,5,5,6,6,7,7,8,8,9,9,10,10,11,11,12,12,13,13,14,14],"right_children":[2,4,6,8,10,12,14,16,18,20,22,24,26,28,30,-1,-1,-1,-1,-1,-1,-1,-1,-1,-1,-1,-1,-1,-1,-1,-1],"split_conditions":[1E0,7.65625E-1,1E0,1E0,1E0,4.6875E-1,1E0,4.21875E-1,1E0,1E0,7.8125E-1,3.90625E-1,1E0,7.03125E-1,4.0625E-1,-1.5093824E-1,-4.309098E-2,-3.4993663E-2,2.4651812E-2,1.1942641E-1,1.7075443E-1,-7.0362906E-3,1.910331E-1,-1.933836E-1,9.354755E-2,-4.7691762E-2,3.6968675E-2,4.4932947E-2,-2.6655972E-2,-9.1429144E-2,1.1160429E-1],"split_indices":[6,0,1,5,3,0,8,0,2,1,0,0,5,0,0,0,0,0,0,0,0,0,0,0,0,0,0,0,0,0,0],"split_type":[0,0,0,0,0,0,0,0,0,0,0,0,0,0,0,0,0,0,0,0,0,0,0,0,0,0,0,0,0,0,0],"sum_hessian":[1.3740863E3,7.506924E2,6.23394E2,7.083068E2,4.2385525E1,3.684299E2,2.5496408E2,3.73815E2,3.3449185E2,2.1395872E1,2.0989655E1,8.5624214E1,2.828057E2,1.4383548E2,1.1112859E2,3.7246418E1,3.3656857E2,1.8168748E2,1.5280435E2,8.863691E0,1.253218E1,1.6898037E1,4.0916176E0,4.68788E0,8.093633E1,1.5897968E2,1.23826004E2,1.1815274E2,2.5682741E1,5.3929276E0,1.05735664E2],"tree_param":{"num_deleted":"0","num_feature":"10","num_nodes":"31","size_leaf_vector":"1"}},{"base_weights":[-4.9812817E-3,-1.23458266E-1,1.2448614E-1,-2.3549722E-1,-6.5812855E-3,5.5915248E-3,2.4900803E-1,-2.7790937E-1,4.2910627E-1,7.201253E-2,-3.4989974E-1,-1.250611E-1,1.8674496E-1,2.0071512E-1,9.0014017E-1,-8.272662E-2,-2.9254517E-2,1.8277791E-1,-4.326535E-2,-2.8625072E-3,8.381393E-2,-1.4353658E-1,6.4747364E-6,-6.4828314E-2,1.754832E-2,1.1936116E-2,7.7898666E-2,2.1418713E-2,6.8587385E-2,2.3363097E-1,7.217228E-2],"categories":[],"categories_nodes":[],"categories_segments":[],"categories_sizes":[],"default_left":[0,0,0,0,0,0,0,0,0,0,0,0,0,0,0,0,0,0,0,0,0,0,0,0,0,0,0,0,0,0,0],"id":47,"left_children":[1,3,5,7,9,11,13,15,17,19,21,23,25,27,29,-1,-1,-1,-1,-1,-1,-1,-1,-1,-1,-1,-1,-1,-1,-1,-1],"loss_changes":[2.1054733E1,9.366481E0,9.679033E0,1.0305191E1,9.515637E0,7.9571943E0,9.926687E0,6.083494E0,6.9218955E0,8.606438E0,8.53216E0,8.281497E0,3.587368E0,3.9185677E0,2.9712029E0,0E0,0E0,0E0,0E0,0E0,0E0,0E0,0E0,0E0,0E0,0E0,0E0,0E0,0E0,0E0,0E0],"parents":[2147483647,0,0,1,1,2,2,3,3,4,4,5,5,6,6,7,7,8,8,9,9,10,10,11,11,12,12,13,13,14,14],"right_children":[2,4,6,8,10,12,14,16,18,20,22,24,26,28,30,-1,-1,-1,-1,-1,-1,-1,-1,-1,-1,-1,-1,-1,-1,-1,-1],"split_conditions":[1E0,1E0,1E0,7.65625E-1,7.03125E-1,1E0,7.65625E-1,1E0,1E0,6.40625E-1,1E0,1E0,1E0,1E0,1E0,-8.272662E-2,-2.9254517E-2,1.8277791E-1,-4.326535E-2,-2.8625072E-3,8.381393E-2,-1.4353658E-1,6.4747364E-6,-6.4828314E-2,1.754832E-2,1.1936116E-2,7.7898666E-2,2.1418713E-2,6.8587385E-2,2.3363097E-1,7.217228E-2],"split_indices":[8,3,9,0,0,2,0,7,6,0,9,6,7,3,7,0,0,0,0,0,0,0,0,0,0,0,0,0,0,0,0],"split_type":[0,0,0,0,0,0,0,0,0,0,0,0,0,0,0,0,0,0,0,0,0,0,0,0,0,0,0,0,0,0,0],"sum_hessian":[1.372442E3,7.170444E2,6.553977E2,3.6561072E2,3.5143365E2,3.3573883E2,3.1965887E2,3.4387476E2,2.1735968E1,2.857959E2,6.563777E1,1.947552E2,1.4098363E2,2.978523E2,2.1806585E1,1.688296E2,1.7504515E2,1.2477493E1,9.258475E0,2.2871446E2,5.7081425E1,3.2090702E1,3.3547066E1,1.0083757E2,9.3917625E1,8.705074E1,5.3932884E1,1.8014508E2,1.1770721E2,1.43652115E1,7.4413733E0],"tree_param":{"num_deleted":"0","num_feature":"10","num_nodes":"31","size_leaf_vector":"1"}},{"base_weights":[2.0328635E-2,-1.9893569E-1,3.2869127E-2,-6.5671094E-2,1.5406884E-1,-1.6250074E-1,2.7287448E-2,2.7371522E-2,3.0395624E-1,-1.0491659E-2,-6.641434E-2,-7.604088E-3,5.912244E-2,1.02086596E-1,-9.270489E-3,3.497445E-2,9.5971934E-2],"categories":[],"categories_nodes":[],"categories_segments":[],"categories_sizes":[],"default_left":[0,0,0,0,0,0,0,0,0,0,0,0,0,0,0,0,0],"id":48,"left_children":[1,-1,3,5,7,9,11,13,15,-1,-1,-1,-1,-1,-1,-1,-1],"loss_changes":[1.6906668E1,0E0,1.576784E1,6.561022E0,1.1211527E1,6.6177397E0,6.5221534E0,1.1494189E1,6.077011E0,0E0,0E0,0E0,0E0,0E0,0E0,0E0,0E0],"parents":[2147483647,0,0,2,2,3,3,4,4,5,5,6,6,7,7,8,8],"right_children":[2,-1,4,6,8,10,12,14,16,-1,-1,-1,-1,-1,-1,-1,-1],"split_conditions":[3.90625E-1,-1.9893569E-1,1E0,1E0,1E0,6.25E-1,7.1875E-1,4.375E-1,1E0,-1.0491659E-2,-6.641434E-2,-7.604088E-3,5.912244E-2,1.02086596E-1,-9.270489E-3,3.497445E-2,9.5971934E-2],"split_indices":[0,0,7,8,3,0,0,0,8,0,0,0,0,0,0,0,0],"split_type":[0,0,0,0,0,0,0,0,0,0,0,0,0,0,0,0,0],"sum_hessian":[1.335433E3,1.6105114E1,1.3193279E3,7.2725836E2,5.9206946E2,3.567025E2,3.7055585E2,3.2128122E2,2.7078824E2,2.1675853E2,1.39944E2,2.977896E2,7.2766235E1,4.2642025E1,2.786392E2,1.5662172E2,1.1416652E2],"tree_param":{"num_deleted":"0","num_feature":"10","num_nodes":"17","size_leaf_vector":"1"}},{"base_weights":[6.4900517E-3,-8.844823E-2,1.20397255E-1,-1.927761E-1,2.1567546E-2,2.5769588E-2,2.4669147E-1,-3.7724322E-1,-3.933501E-2,9.371462E-2,-2.0907894E-1,-1.158626E-1,3.2812807E-1,1.07472435E-1,4.3600735E-1,-4.403695E-2,-1.22088306E-1,-3.4016833E-2,2.0393018E-2,2.9625816E-3,1.0045957E-1,-2.6366553E-1,-8.71954E-3,-1.7319642E-1,-1.3400274E-2,4.5723323E-2,1.06504284E-1,-8.361785E-3,6.6633284E-2,1.2126483E-1,-4.263447E-3],"categories":[],"categories_nodes":[],"categories_segments":[],"categories_sizes":[],"default_left":[0,0,0,0,0,0,0,0,0,0,0,0,0,0,0,0,0,0,0,0,0,0,0,0,0,0,0,0,0,0,0],"id":49,"left_children":[1,3,5,7,9,11,13,15,17,19,21,23,25,27,29,-1,-1,-1,-1,-1,-1,-1,-1,-1,-1,-1,-1,-1,-1,-1,-1],"loss_changes":[1.4497441E1,8.402521E0,7.2593126E0,1.0583683E1,5.901164E0,1.4976714E1,6.812461E0,6.1363735E0,3.8026335E0,8.682971E0,1.5338655E1,8.609988E0,2.182167E0,5.1069565E0,8.638807E0,0E0,0E0,0E0,0E0,0E0,0E0,0E0,0E0,0E0,0E0,0E0,0E0,0E0,0E0,0E0,0E0],"parents":[2147483647,0,0,1,1,2,2,3,3,4,4,5,5,6,6,7,7,8,8,9,9,10,10,11,11,12,12,13,13,14,14],"right_children":[2,4,6,8,10,12,14,16,18,20,22,24,26,28,30,-1,-1,-1,-1,-1,-1,-1,-1,-1,-1,-1,-1,-1,-1,-1,-1],"split_conditions":[1E0,1E0,1E0,1E0,6.875E-1,6.71875E-1,1E0,6.09375E-1,1E0,6.40625E-1,7.03125E-1,4.0625E-1,7.5E-1,1E0,6.71875E-1,-4.403695E-2,-1.22088306E-1,-3.4016833E-2,2.0393018E-2,2.9625816E-3,1.0045957E-1,-2.6366553E-1,-8.71954E-3,-1.7319642E-1,-1.3400274E-2,4.5723323E-2,1.06504284E-1,-8.361785E-3,6.6633284E-2,1.2126483E-1,-4.263447E-3],"split_indices":[2,3,3,9,0,0,4,0,7,0,0,0,0,8,0,0,0,0,0,0,0,0,0,0,0,0,0,0,0,0,0],"split_type":[0,0,0,0,0,0,0,0,0,0,0,0,0,0,0,0,0,0,0,0,0,0,0,0,0,0,0,0,0,0,0],"sum_hessian":[1.3401049E3,7.3044495E2,6.0965985E2,3.753421E2,3.5510287E2,3.490452E2,2.6061465E2,1.7007732E2,2.0526479E2,2.7086746E2,8.423541E1,2.375172E2,1.11527985E2,1.5057204E2,1.1004262E2,1.0200228E2,6.8075035E1,1.069698E2,9.829498E1,2.2731828E2,4.354918E1,1.0766277E1,7.346913E1,1.4297803E1,2.2321939E2,7.548048E1,3.6047504E1,9.041019E1,6.0161846E1,8.031704E1,2.972558E1],"tree_param":{"num_deleted":"0","num_feature":"10","num_nodes":"31","size_leaf_vector":"1"}},{"base_weights":[-1.500715E-3,-1.040827E-1,1.2958746E-1,-2.2129226E-1,2.7889688E-2,2.375015E-2,2.7111563E-1,-3.6893195E-1,-7.525058E-2,-7.856652E-2,1.3801762E-1,-8.9294456E-2,1.5974995E-1,1.6531679E-1,4.4009134E-1,-1.3062802E-1,-3.883014E-2,-4.688684E-2,1.7918471E-2,-4.552558E-2,1.3214086E-2,1.6511703E-3,6.204625E-2,-6.1932147E-2,3.0403217E-2,6.837704E-3,6.2280435E-2,5.0207824E-3,6.820624E-2,5.416296E-2,1.4214239E-1],"categories":[],"categories_nodes":[],"categories_segments":[],"categories_sizes":[],"default_left":[0,0,0,0,0,0,0,0,0,0,0,0,0,0,0,0,0,0,0,0,0,0,0,0,0,0,0,0,0,0,0],"id":50,"left_children":[1,3,5,7,9,11,13,15,17,19,21,23,25,27,29,-1,-1,-1,-1,-1,-1,-1,-1,-1,-1,-1,-1,-1,-1,-1,-1],"loss_changes":[1.7685102E1,1.1440672E1,8.612848E0,8.392981E0,4.074938E0,5.0918126E0,4.33832E0,9.553886E0,5.192587E0,3.812881E0,3.7902193E0,9.604138E0,2.8305528E0,3.70963E0,4.2104225E0,0E0,0E0,0E0,0E0,0E0,0E0,0E0,0E0,0E0,0E0,0E0,0E0,0E0,0E0,0E0,0E0],"parents":[2147483647,0,0,1,1,2,2,3,3,4,4,5,5,6,6,7,7,8,8,9,9,10,10,11,11,12,12,13,13,14,14],"right_children":[2,4,6,8,10,12,14,16,18,20,22,24,26,28,30,-1,-1,-1,-1,-1,-1,-1,-1,-1,-1,-1,-1,-1,-1,-1,-1],"split_conditions":[1E0,1E0,1E0,1E0,1E0,1E0,1E0,1E0,1E0,1E0,1E0,1E0,1E0,1E0,1E0,-1.3062802E-1,-3.883014E-2,-4.688684E-2,1.7918471E-2,-4.552558E-2,1.3214086E-2,1.6511703E-3,6.204625E-2,-6.1932147E-2,3.0403217E-2,6.837704E-3,6.2280435E-2,5.0207824E-3,6.820624E-2,5.416296E-2,1.4214239E-1],"split_indices":[5,7,4,2,9,3,7,8,9,2,6,7,8,2,3,0,0,0,0,0,0,0,0,0,0,0,0,0,0,0,0],"split_type":[0,0,0,0,0,0,0,0,0,0,0,0,0,0,0,0,0,0,0,0,0,0,0,0,0,0,0,0,0,0,0],"sum_hessian":[1.3151322E3,7.382243E2,5.7690796E2,3.9134573E2,3.4687857E2,3.305443E2,2.4636365E2,1.9419174E2,1.97154E2,1.7593243E2,1.7094612E2,1.8012302E2,1.504213E2,1.5198972E2,9.437394E1,7.362532E1,1.2056642E2,1.0058585E2,9.6568146E1,8.695327E1,8.897916E1,9.787982E1,7.306631E1,9.434901E1,8.577402E1,8.271709E1,6.77042E1,8.491468E1,6.707503E1,5.840837E1,3.596557E1],"tree_param":{"num_deleted":"0","num_feature":"10","num_nodes":"31","size_leaf_vector":"1"}},{"base_weights":[2.6575107E-2,-7.6752916E-2,1.2978049E-1,-1.8647379E-1,4.912781E-2,-3.4122597E-3,2.8433222E-1,-4.1486762E-2,-3.2268432E-1,1.9136558E-1,-6.316987E-2,-5.102226E-2,8.04438E-1,3.244477E-1,-5.4374684E-2,-4.1283708E-2,2.6847363E-2,-1.4872941E-1,-4.388285E-2,7.5800703E-3,9.2754215E-2,-1.5666217E-1,1.8531395E-2,-4.223325E-2,2.7039325E-2,2.744061E-1,-2.5906531E-2,5.456388E-2,1.552932E-1,-1.07903495E-1,8.721986E-2],"categories":[],"categories_nodes":[],"categories_segments":[],"categories_sizes":[],"default_left":[0,0,0,0,0,0,0,0,0,0,0,0,0,0,0,0,0,0,0,0,0,0,0,0,0,0,0,0,0,0,0],"id":51,"left_children":[1,3,5,7,9,11,13,15,17,19,21,23,25,27,29,-1,-1,-1,-1,-1,-1,-1,-1,-1,-1,-1,-1,-1,-1,-1,-1],"loss_changes":[1.3799998E1,8.936146E0,1.3360098E1,6.786729E0,4.8134294E0,1.3298511E1,4.106819E0,4.8749833E0,7.6170673E0,5.5073214E0,1.888271E1,9.80622E0,1.0338846E1,6.142893E0,7.554155E0,0E0,0E0,0E0,0E0,0E0,0E0,0E0,0E0,0E0,0E0,0E0,0E0,0E0,0E0,0E0,0E0],"parents":[2147483647,0,0,1,1,2,2,3,3,4,4,5,5,6,6,7,7,8,8,9,9,10,10,11,11,12,12,13,13,14,14],"right_children":[2,4,6,8,10,12,14,16,18,20,22,24,26,28,30,-1,-1,-1,-1,-1,-1,-1,-1,-1,-1,-1,-1,-1,-1,-1,-1],"split_conditions":[1E0,1E0,1E0,5.78125E-1,5.46875E-1,7.65625E-1,7.34375E-1,1E0,6.25E-1,5E-1,5.9375E-1,1E0,1E0,7.03125E-1,1E0,-4.1283708E-2,2.6847363E-2,-1.4872941E-1,-4.388285E-2,7.5800703E-3,9.2754215E-2,-1.5666217E-1,1.8531395E-2,-4.223325E-2,2.7039325E-2,2.744061E-1,-2.5906531E-2,5.456388E-2,1.552932E-1,-1.07903495E-1,8.721986E-2],"split_indices":[9,7,4,0,0,0,0,5,0,0,0,1,7,0,8,0,0,0,0,0,0,0,0,0,0,0,0,0,0,0,0],"split_type":[0,0,0,0,0,0,0,0,0,0,0,0,0,0,0,0,0,0,0,0,0,0,0,0,0,0,0,0,0,0,0],"sum_hessian":[1.2933817E3,6.4583545E2,6.4754626E2,3.454653E2,3.0037015E2,3.475115E2,3.0003476E2,1.6776027E2,1.7770502E2,1.3288115E2,1.67489E2,3.2837637E2,1.9135128E1,2.6853027E2,3.1504492E1,8.682195E1,8.093832E1,3.469369E1,1.4301134E2,8.530425E1,4.7576893E1,2.9837324E1,1.3765167E2,1.7683012E2,1.5154626E2,1.1939451E1,7.1956763E0,2.4134598E2,2.7184294E1,1.5935795E1,1.5568697E1],"tree_param":{"num_deleted":"0","num_feature":"10","num_nodes":"31","size_leaf_vector":"1"}},{"base_weights":[-8.775877E-3,-1.2930673E-1,1.3594812E-1,-2.5930837E-1,2.7281952E-3,4.353038E-2,2.7061126E-1,-3.020662E-1,4.3663672E-1,-1.2929873E-1,1.591551E-1,-4.8964936E-2,1.7035271E-1,-5.8071953E-1,3.0530998E-1,-6.7433356E-3,-8.6135715E-2,1.7329769E-1,-4.6524357E-2,-5.0307937E-2,1.5315655E-2,1.3609279E-3,7.989849E-2,-5.0848115E-2,3.779101E-2,2.0194344E-2,1.537549E-1,-2.256509E-1,8.740443E-2,7.592062E-2,-7.961571E-3],"categories":[],"categories_nodes":[],"categories_segments":[],"categories_sizes":[],"default_left":[0,0,0,0,0,0,0,0,0,0,0,0,0,0,0,0,0,0,0,0,0,0,0,0,0,0,0,0,0,0,0],"id":52,"left_children":[1,3,5,7,9,11,13,15,17,19,21,23,25,27,29,-1,-1,-1,-1,-1,-1,-1,-1,-1,-1,-1,-1,-1,-1,-1,-1],"loss_changes":[2.2483479E1,1.2103388E1,7.251895E0,1.0561369E1,7.2087207E0,4.091263E0,7.013521E0,1.1499451E1,5.9665203E0,4.7724485E0,5.8190656E0,9.811539E0,6.0128694E0,5.26329E0,5.8973618E0,0E0,0E0,0E0,0E0,0E0,0E0,0E0,0E0,0E0,0E0,0E0,0E0,0E0,0E0,0E0,0E0],"parents":[2147483647,0,0,1,1,2,2,3,3,4,4,5,5,6,6,7,7,8,8,9,9,10,10,11,11,12,12,13,13,14,14],"right_children":[2,4,6,8,10,12,14,16,18,20,22,24,26,28,30,-1,-1,-1,-1,-1,-1,-1,-1,-1,-1,-1,-1,-1,-1,-1,-1],"split_conditions":[1E0,1E0,1E0,7.65625E-1,1E0,1E0,4.0625E-1,5E-1,1E0,6.40625E-1,1E0,1E0,7.5E-1,1E0,7.03125E-1,-6.7433356E-3,-8.6135715E-2,1.7329769E-1,-4.6524357E-2,-5.0307937E-2,1.5315655E-2,1.3609279E-3,7.989849E-2,-5.0848115E-2,3.779101E-2,2.0194344E-2,1.537549E-1,-2.256509E-1,8.740443E-2,7.592062E-2,-7.961571E-3],"split_indices":[6,3,7,0,4,2,0,0,4,0,2,4,0,5,0,0,0,0,0,0,0,0,0,0,0,0,0,0,0,0,0],"split_type":[0,0,0,0,0,0,0,0,0,0,0,0,0,0,0,0,0,0,0,0,0,0,0,0,0,0,0,0,0,0,0],"sum_hessian":[1.2887535E3,7.035313E2,5.8522217E2,3.5482828E2,3.4870303E2,3.4756638E2,2.3765582E2,3.344787E2,2.034959E1,1.8876244E2,1.599406E2,2.005628E2,1.4700356E2,9.132602E0,2.2852322E2,1.0866115E2,2.2581755E2,1.2464094E1,7.8854957E0,1.187295E2,7.003294E1,9.820629E1,6.1734306E1,1.0788976E2,9.267305E1,1.3198518E2,1.50183735E1,5.9948373E0,3.1377647E0,1.8827356E2,4.024966E1],"tree_param":{"num_deleted":"0","num_feature":"10","num_nodes":"31","size_leaf_vector":"1"}},{"base_weights":[-7.4318107E-3,-1.09754674E-1,1.1603092E-1,-1.17822245E-1,1.926807E-1,-3.2347962E-2,2.7053925E-1,-2.5458016E-2,-2.1105444E-1,-1.7609997E-1,1.428047E-1,1.8158633E-1,4.1639316E-1,-7.666928E-2,1.0218679E-2,-7.062878E-2,-1.375431E-2,-8.956289E-2,1.4970021E-2,-4.8821148E-2,4.2648707E-2,1.1313118E-1,1.4875369E-2,6.936481E-2,2.6319742E-1],"categories":[],"categories_nodes":[],"categories_segments":[],"categories_sizes":[],"default_left":[0,0,0,0,0,0,0,0,0,0,0,0,0,0,0,0,0,0,0,0,0,0,0,0,0],"id":53,"left_children":[1,3,5,7,-1,9,11,13,15,17,19,21,23,-1,-1,-1,-1,-1,-1,-1,-1,-1,-1,-1,-1],"loss_changes":[1.6041937E1,5.9424925E0,1.3208281E1,5.9161444E0,0E0,7.385812E0,3.5919895E0,9.546822E0,6.884694E0,1.1041987E1,3.5958822E0,7.170629E0,6.4436913E0,0E0,0E0,0E0,0E0,0E0,0E0,0E0,0E0,0E0,0E0,0E0,0E0],"parents":[2147483647,0,0,1,1,2,2,3,3,5,5,6,6,7,7,8,8,9,9,10,10,11,11,12,12],"right_children":[2,4,6,8,-1,10,12,14,16,18,20,22,24,-1,-1,-1,-1,-1,-1,-1,-1,-1,-1,-1,-1],"split_conditions":[1E0,7.8125E-1,1E0,5.78125E-1,1.926807E-1,1E0,1E0,4.21875E-1,1E0,1E0,4.53125E-1,4.53125E-1,7.65625E-1,-7.666928E-2,1.0218679E-2,-7.062878E-2,-1.375431E-2,-8.956289E-2,1.4970021E-2,-4.8821148E-2,4.2648707E-2,1.1313118E-1,1.4875369E-2,6.936481E-2,2.6319742E-1],"split_indices":[1,0,9,0,0,3,5,0,3,2,0,0,0,0,0,0,0,0,0,0,0,0,0,0,0],"split_type":[0,0,0,0,0,0,0,0,0,0,0,0,0,0,0,0,0,0,0,0,0,0,0,0,0],"sum_hessian":[1.2696866E3,6.9473145E2,5.749552E2,6.897285E2,5.0028987E0,2.930054E2,2.819498E2,3.470798E2,3.426487E2,1.6124123E2,1.3176416E2,1.7570282E2,1.0624699E2,6.1317516E1,2.857623E2,1.7101512E2,1.7163359E2,7.757138E1,8.366985E1,2.0037088E1,1.1172708E2,3.804592E1,1.376569E2,9.885208E1,7.3949013E0],"tree_param":{"num_deleted":"0","num_feature":"10","num_nodes":"25","size_leaf_vector":"1"}},{"base_weights":[3.1545974E-2,-4.4335138E-2,1.3204995E-1,-1.3469046E-1,4.749993E-2,3.0971972E-2,2.7561662E-1,-2.1420859E-1,-6.4787626E-2,-3.156266E-2,1.6764294E-1,-8.66426E-2,1.5374781E-1,1.4857474E-1,4.8441106E-1,-7.8012265E-2,-1.6121365E-2,-3.7655078E-2,1.4649517E-2,-3.5520997E-2,2.4066603E-2,1.2797832E-2,6.440346E-2,-4.6697475E-2,1.6555073E-2,1.6121715E-3,6.335817E-2,2.7817563E-4,6.9188595E-2,7.389336E-2,1.4160894E-1],"categories":[],"categories_nodes":[],"categories_segments":[],"categories_sizes":[],"default_left":[0,0,0,0,0,0,0,0,0,0,0,0,0,0,0,0,0,0,0,0,0,0,0,0,0,0,0,0,0,0,0],"id":54,"left_children":[1,3,5,7,9,11,13,15,17,19,21,23,25,27,29,-1,-1,-1,-1,-1,-1,-1,-1,-1,-1,-1,-1,-1,-1,-1,-1],"loss_changes":[9.608028E0,5.9561095E0,7.834428E0,1.9818988E0,3.385725E0,4.608954E0,5.8588867E0,3.909865E0,3.3088925E0,4.74742E0,2.221837E0,4.056647E0,3.680852E0,4.015184E0,2.0309334E0,0E0,0E0,0E0,0E0,0E0,0E0,0E0,0E0,0E0,0E0,0E0,0E0,0E0,0E0,0E0,0E0],"parents":[2147483647,0,0,1,1,2,2,3,3,4,4,5,5,6,6,7,7,8,8,9,9,10,10,11,11,12,12,13,13,14,14],"right_children":[2,4,6,8,10,12,14,16,18,20,22,24,26,28,30,-1,-1,-1,-1,-1,-1,-1,-1,-1,-1,-1,-1,-1,-1,-1,-1],"split_conditions":[1E0,1E0,1E0,1E0,1E0,1E0,1E0,1E0,1E0,1E0,1E0,1E0,1E0,1E0,1E0,-7.8012265E-2,-1.6121365E-2,-3.7655078E-2,1.4649517E-2,-3.5520997E-2,2.4066603E-2,1.2797832E-2,6.440346E-2,-4.6697475E-2,1.6555073E-2,1.6121715E-3,6.335817E-2,2.7817563E-4,6.9188595E-2,7.389336E-2,1.4160894E-1],"split_indices":[5,1,6,9,6,9,2,2,3,8,3,1,7,3,7,0,0,0,0,0,0,0,0,0,0,0,0,0,0,0,0],"split_type":[0,0,0,0,0,0,0,0,0,0,0,0,0,0,0,0,0,0,0,0,0,0,0,0,0,0,0,0,0,0,0],"sum_hessian":[1.2585187E3,7.165671E2,5.419516E2,3.6171887E2,3.548482E2,3.1851764E2,2.2343396E2,1.6845523E2,1.9326363E2,2.1355519E2,1.4129301E2,1.622772E2,1.5624043E2,1.393164E2,8.411755E1,7.2321686E1,9.6133545E1,1.0237022E2,9.089342E1,1.0920238E2,1.0435281E2,8.500566E1,5.628735E1,8.722579E1,7.5051414E1,8.289129E1,7.334915E1,8.015191E1,5.9164494E1,5.6030895E1,2.808666E1],"tree_param":{"num_deleted":"0","num_feature":"10","num_nodes":"31","size_leaf_vector":"1"}},{"base_weights":[3.8203273E-2,-1.9786559E-1,4.7916226E-2,3.9626814E-2,1.967709E-1,-2.4030054E-2,1.1930863E-1,-2.133044E-2,2.444796E-2,6.452165E-3,4.9317863E-2],"categories":[],"categories_nodes":[],"categories_segments":[],"categories_sizes":[],"default_left":[0,0,0,0,0,0,0,0,0,0,0],"id":55,"left_children":[1,-1,3,5,-1,7,9,-1,-1,-1,-1],"loss_changes":[1.2594628E1,0E0,9.663021E0,6.3417873E0,0E0,8.378839E0,6.1216164E0,0E0,0E0,0E0,0E0],"parents":[2147483647,0,0,2,2,3,3,5,5,6,6],"right_children":[2,-1,4,6,-1,8,10,-1,-1,-1,-1],"split_conditions":[3.90625E-1,-1.9786559E-1,7.8125E-1,1E0,1.967709E-1,6.40625E-1,1E0,-2.133044E-2,2.444796E-2,6.452165E-3,4.9317863E-2],"split_indices":[0,0,0,4,0,0,1,0,0,0,0],"split_type":[0,0,0,0,0,0,0,0,0,0,0],"sum_hessian":[1.2707985E3,1.170915E1,1.2590892E3,1.2482449E3,1.0844371E1,6.9323914E2,5.550058E2,4.4345786E2,2.497813E2,3.3013562E2,2.2487015E2],"tree_param":{"num_deleted":"0","num_feature":"10","num_nodes":"11","size_leaf_vector":"1"}},{"base_weights":[-1.5362843E-2,-1.9693908E-1,-7.447888E-3,-1.5134685E-2,1.9603643E-1,6.288368E-2,-8.939833E-2,-3.3570037E-3,3.273414E-2,-4.1055858E-2,7.7190115E-3],"categories":[],"categories_nodes":[],"categories_segments":[],"categories_sizes":[],"default_left":[0,0,0,0,0,0,0,0,0,0,0],"id":56,"left_children":[1,-1,3,5,-1,7,9,-1,-1,-1,-1],"loss_changes":[9.204112E0,0E0,9.038378E0,6.9210653E0,0E0,4.6855545E0,9.100711E0,0E0,0E0,0E0,0E0],"parents":[2147483647,0,0,2,2,3,3,5,5,6,6],"right_children":[2,-1,4,6,-1,8,10,-1,-1,-1,-1],"split_conditions":[3.90625E-1,-1.9693908E-1,7.8125E-1,5.78125E-1,1.9603643E-1,1E0,1E0,-3.3570037E-3,3.273414E-2,-4.1055858E-2,7.7190115E-3],"split_indices":[0,0,0,0,0,2,8,0,0,0,0],"split_type":[0,0,0,0,0,0,0,0,0,0,0],"sum_hessian":[1.212594E3,9.618801E0,1.2029752E3,1.1938829E3,9.092359E0,5.815738E2,6.123091E2,3.2430942E2,2.572644E2,3.217386E2,2.9057047E2],"tree_param":{"num_deleted":"0","num_feature":"10","num_nodes":"11","size_leaf_vector":"1"}},{"base_weights":[-1.9292629E-3,-9.661262E-2,1.14311606E-1,-2.1820843E-1,3.3996057E-2,3.5965599E-3,2.789429E-1,-2.7091023E-1,3.1527805E-1,8.456588E-2,-6.7536664E-1,-5.601422E-1,7.378733E-2,5.5071336E-1,1.4827122E-1,-9.252387E-2,-2.2321666E-2,2.0244674E-1,-3.6948748E-2,-6.6619474E-3,7.095359E-2,-1.6098653E-1,1.7608371E-1,-1.8356825E-1,-4.7037687E-2,8.486974E-2,1.0904371E-2,-1.7258869E-1,1.1583897E-1,5.2800566E-5,7.284699E-2],"categories":[],"categories_nodes":[],"categories_segments":[],"categories_sizes":[],"default_left":[0,0,0,0,0,0,0,0,0,0,0,0,0,0,0,0,0,0,0,0,0,0,0,0,0,0,0,0,0,0,0],"id":57,"left_children":[1,3,5,7,9,11,13,15,17,19,21,23,25,27,29,-1,-1,-1,-1,-1,-1,-1,-1,-1,-1,-1,-1,-1,-1,-1,-1],"loss_changes":[1.36060915E1,1.0848E1,1.0079363E1,9.943575E0,1.1728306E1,1.3093611E1,